{"learner":{"attributes":{"scikit_learn":"{\"_estimator_type\": \"classifier\"}"},"feature_names":["age","education","campaign","previous","cons.conf.idx","marital_married","marital_single","job_blue-collar","job_entrepreneur","job_housemaid","job_management","job_retired","job_self-employed","job_services","job_student","job_technician","job_unemployed","housing_yes","loan_yes","poutcome_success","default_unknown","default_yes","contact_telephone","month_aug","month_dec","month_jul","month_jun","month_mar","month_may","month_nov","month_oct","month_sep","day_of_week_mon","day_of_week_thu","day_of_week_tue","day_of_week_wed","macro_eco1"],"feature_types":["float","float","float","float","float","i","i","i","i","i","i","i","i","i","i","i","i","i","i","i","i","i","i","i","i","i","i","i","i","i","i","i","i","i","i","i","float"],"gradient_booster":{"model":{"cats":{"enc":[],"feature_segments":[],"sorted_idx":[]},"gbtree_model_param":{"num_parallel_tree":"1","num_trees":"300"},"iteration_indptr":[0,1,2,3,4,5,6,7,8,9,10,11,12,13,14,15,16,17,18,19,20,21,22,23,24,25,26,27,28,29,30,31,32,33,34,35,36,37,38,39,40,41,42,43,44,45,46,47,48,49,50,51,52,53,54,55,56,57,58,59,60,61,62,63,64,65,66,67,68,69,70,71,72,73,74,75,76,77,78,79,80,81,82,83,84,85,86,87,88,89,90,91,92,93,94,95,96,97,98,99,100,101,102,103,104,105,106,107,108,109,110,111,112,113,114,115,116,117,118,119,120,121,122,123,124,125,126,127,128,129,130,131,132,133,134,135,136,137,138,139,140,141,142,143,144,145,146,147,148,149,150,151,152,153,154,155,156,157,158,159,160,161,162,163,164,165,166,167,168,169,170,171,172,173,174,175,176,177,178,179,180,181,182,183,184,185,186,187,188,189,190,191,192,193,194,195,196,197,198,199,200,201,202,203,204,205,206,207,208,209,210,211,212,213,214,215,216,217,218,219,220,221,222,223,224,225,226,227,228,229,230,231,232,233,234,235,236,237,238,239,240,241,242,243,244,245,246,247,248,249,250,251,252,253,254,255,256,257,258,259,260,261,262,263,264,265,266,267,268,269,270,271,272,273,274,275,276,277,278,279,280,281,282,283,284,285,286,287,288,289,290,291,292,293,294,295,296,297,298,299,300],"tree_info":[0,0,0,0,0,0,0,0,0,0,0,0,0,0,0,0,0,0,0,0,0,0,0,0,0,0,0,0,0,0,0,0,0,0,0,0,0,0,0,0,0,0,0,0,0,0,0,0,0,0,0,0,0,0,0,0,0,0,0,0,0,0,0,0,0,0,0,0,0,0,0,0,0,0,0,0,0,0,0,0,0,0,0,0,0,0,0,0,0,0,0,0,0,0,0,0,0,0,0,0,0,0,0,0,0,0,0,0,0,0,0,0,0,0,0,0,0,0,0,0,0,0,0,0,0,0,0,0,0,0,0,0,0,0,0,0,0,0,0,0,0,0,0,0,0,0,0,0,0,0,0,0,0,0,0,0,0,0,0,0,0,0,0,0,0,0,0,0,0,0,0,0,0,0,0,0,0,0,0,0,0,0,0,0,0,0,0,0,0,0,0,0,0,0,0,0,0,0,0,0,0,0,0,0,0,0,0,0,0,0,0,0,0,0,0,0,0,0,0,0,0,0,0,0,0,0,0,0,0,0,0,0,0,0,0,0,0,0,0,0,0,0,0,0,0,0,0,0,0,0,0,0,0,0,0,0,0,0,0,0,0,0,0,0,0,0,0,0,0,0,0,0,0,0,0,0,0,0,0,0,0,0,0,0,0,0,0,0,0,0,0,0,0,0,0,0,0,0,0,0],"trees":[{"base_weights":[-9.182403E-3,-2.264562E-1,1.6488576E0,4.3370415E-2,-9.0798897E-1,1.7308634E-2,1.3870257E0,-2.8107816E-1,1.7620021E0,-1.0758508E0,-6.7698425E-1,1.4113399E0,1.3750722E-3,9.361228E-1,-5.649207E-1,1.8723341E0,1.0920876E0,-1.1108696E0,-8.620394E-1,-6.970083E-1,6.7476896E-3,1.4421138E0,5.8909684E-1,1.697361E0,6.1279166E-1,-4.4851342E-1,-8.528623E-1,1.4328977E0,2.0555712E-2,-3.7847403E-2,1.2199235E0,-1.1235613E0,-6.664968E-1,-3.3704084E-1,-9.041195E-1,-6.568884E-1,-1.0115168E0,5.058319E-1,-4.0517056E-1,1.4790409E-2,7.636967E-1,-9.824347E-4,8.06877E-3,1.771509E-2,5.6143054E-3,7.560385E-3,-6.7274217E-3,-2.6733743E-3,-5.6838873E-3,-1.1388274E-2,-7.631366E-3,1.4693695E-2,2.340224E-3,-3.6450212E-3,5.4354765E-3,1.563059E-2,5.321713E-3,-4.8040072E-3,-1.1283953E-2,-1.0229491E-2,-1.8600498E-3,-7.98736E-3,4.7833864E-3,-9.643966E-3,-6.0792277E-3,-4.1083405E-3,-7.0025274E-3,-1.157756E-2,-5.743457E-3,7.3653935E-3,5.854745E-4,-1.06482385E-2,7.959226E-3,8.915349E-3,-7.6106975E-5],"categories":[],"categories_nodes":[],"categories_segments":[],"categories_sizes":[],"default_left":[0,0,0,0,0,0,0,0,0,0,0,0,0,0,0,0,0,0,0,0,0,0,0,0,0,0,0,0,0,0,0,0,0,0,0,0,0,0,0,0,0,0,0,0,0,0,0,0,0,0,0,0,0,0,0,0,0,0,0,0,0,0,0,0,0,0,0,0,0,0,0,0,0,0,0],"id":0,"left_children":[1,3,5,7,9,-1,11,13,15,17,19,21,-1,23,25,27,29,31,33,35,37,39,41,43,45,47,49,51,-1,53,55,57,59,61,63,65,67,69,71,-1,73,-1,-1,-1,-1,-1,-1,-1,-1,-1,-1,-1,-1,-1,-1,-1,-1,-1,-1,-1,-1,-1,-1,-1,-1,-1,-1,-1,-1,-1,-1,-1,-1,-1,-1],"loss_changes":[2.872635E3,1.2966733E3,7.802002E0,2.8213303E3,7.388599E1,0E0,6.4740295E0,1.4733214E3,4.913452E1,3.800171E0,1.17378845E1,1.8126831E0,0E0,1.9335895E2,1.13878784E2,4.0221924E1,1.8389313E1,1.7114258E0,2.5323792E0,7.1447144E0,7.0428314E0,4.6142578E-2,2.9682531E0,1.5023926E1,1.0826756E2,5.289572E1,2.1013489E1,7.772522E0,0E0,4.3332667E0,2.2491562E1,1.8432617E-1,5.76095E0,1.0065664E1,4.3502808E-2,6.565094E0,2.073265E0,1.3726895E0,1.9135422E1,0E0,2.2249146E0,0E0,0E0,0E0,0E0,0E0,0E0,0E0,0E0,0E0,0E0,0E0,0E0,0E0,0E0,0E0,0E0,0E0,0E0,0E0,0E0,0E0,0E0,0E0,0E0,0E0,0E0,0E0,0E0,0E0,0E0,0E0,0E0,0E0,0E0],"parents":[2147483647,0,0,1,1,2,2,3,3,4,4,6,6,7,7,8,8,9,9,10,10,11,11,13,13,14,14,15,15,16,16,17,17,18,18,19,19,20,20,21,21,22,22,23,23,24,24,25,25,26,26,27,27,29,29,30,30,31,31,32,32,33,33,34,34,35,35,36,36,37,37,38,38,40,40],"right_children":[2,4,6,8,10,-1,12,14,16,18,20,22,-1,24,26,28,30,32,34,36,38,40,42,44,46,48,50,52,-1,54,56,58,60,62,64,66,68,70,72,-1,74,-1,-1,-1,-1,-1,-1,-1,-1,-1,-1,-1,-1,-1,-1,-1,-1,-1,-1,-1,-1,-1,-1,-1,-1,-1,-1,-1,-1,-1,-1,-1,-1,-1,-1],"split_conditions":[1.2334269E0,8.877167E-1,1E0,-6.2986545E-2,9.5253736E-1,1.7308634E-2,1E0,-1.2297587E0,1E0,1E0,1E0,1E0,1.3750722E-3,-1.4242207E0,1E0,2.3441019E-2,2.3441019E-2,1.728834E0,-1.0586952E0,1.4404689E0,5.236761E-1,1E0,1E0,1E0,1E0,-1.164938E0,-3.2226926E-1,1E0,2.0555712E-2,1E0,1.5308237E-1,-1.443182E0,5.236761E-1,1E0,1E0,-9.520872E-2,1E0,1E0,1E0,1.4790409E-2,1E0,-9.824347E-4,8.06877E-3,1.771509E-2,5.6143054E-3,7.560385E-3,-6.7274217E-3,-2.6733743E-3,-5.6838873E-3,-1.1388274E-2,-7.631366E-3,1.4693695E-2,2.340224E-3,-3.6450212E-3,5.4354765E-3,1.563059E-2,5.321713E-3,-4.8040072E-3,-1.1283953E-2,-1.0229491E-2,-1.8600498E-3,-7.98736E-3,4.7833864E-3,-9.643966E-3,-6.0792277E-3,-4.1083405E-3,-7.0025274E-3,-1.157756E-2,-5.743457E-3,7.3653935E-3,5.854745E-4,-1.06482385E-2,7.959226E-3,8.915349E-3,-7.6106975E-5],"split_indices":[4,4,23,4,4,0,20,4,22,18,22,10,0,4,22,4,4,0,0,0,1,22,17,22,20,4,4,11,0,18,4,0,1,20,35,1,11,17,35,0,34,0,0,0,0,0,0,0,0,0,0,0,0,0,0,0,0,0,0,0,0,0,0,0,0,0,0,0,0,0,0,0,0,0,0],"split_type":[0,0,0,0,0,0,0,0,0,0,0,0,0,0,0,0,0,0,0,0,0,0,0,0,0,0,0,0,0,0,0,0,0,0,0,0,0,0,0,0,0,0,0,0,0,0,0,0,0,0,0,0,0,0,0,0,0,0,0,0,0,0,0,0,0,0,0,0,0,0,0,0,0,0,0],"sum_hessian":[7.963891E3,7.045017E3,9.188739E2,5.050238E3,1.9947797E3,6.783298E2,2.4054416E2,4.251755E3,7.9848285E2,1.1446666E3,8.5011304E2,2.3530977E2,5.234393E0,8.0181384E2,3.449941E3,6.778539E2,1.2062897E2,9.655076E2,1.79159E2,8.258445E2,2.426855E1,2.2317549E2,1.2134275E1,2.3269257E2,5.691213E2,2.465875E3,9.840659E2,2.1246878E2,4.6538513E2,1.2610128E1,1.0801884E2,9.312461E2,3.4261482E1,1.6654888E1,1.6250412E2,7.461389E2,7.970553E1,1.0468786E1,1.3799764E1,2.0604475E2,1.7130741E1,3.5689044E0,8.565371E0,2.1579976E2,1.6892815E1,5.1392224E2,5.5199055E1,9.883486E2,1.4775264E3,2.2103415E2,7.6303174E2,2.0509303E2,7.3757358E0,9.279152E0,3.3309774E0,6.780918E1,4.0209656E1,1.0706713E1,9.205394E2,1.641696E1,1.7844522E1,1.0706713E1,5.948174E0,1.25625435E2,3.6878677E1,1.1967726E2,6.264617E2,5.3533566E1,2.6171967E1,4.758539E0,5.710247E0,9.279152E0,4.5206122E0,1.4037691E1,3.0930505E0],"tree_param":{"num_deleted":"0","num_feature":"37","num_nodes":"75","size_leaf_vector":"1"}},{"base_weights":[-1.9422533E-3,-1.8645298E-1,2.087759E0,-3.5661426E-1,1.4554807E0,1.5461128E0,2.199218E-2,7.9339224E-1,-4.9788225E-1,1.7802485E0,1.3689628E0,1.913146E0,7.302418E-1,1.5402914E0,5.3764135E-1,-3.0042434E-1,-8.864822E-1,1.8116558E0,3.6289382E-3,1.37829585E-2,4.639314E-1,1.970413E-2,5.6547066E-3,8.69832E-1,-7.505673E-2,1.6434066E-2,1.0267088E0,6.7299294E-1,-6.046835E-1,-5.8260757E-1,1.4650879E0,-1.0103766E0,-7.0858103E-1,1.89013E0,7.982446E-1,-1.4692514E-3,7.86734E-3,2.4231306E-1,1.0317721E0,5.460931E-3,-6.5235244E-3,-1.0546792E-3,1.1398999E-2,5.559014E-3,1.6386976E-2,-7.1425866E-3,4.8602875E-3,-3.2016917E-3,-6.9580274E-3,1.608566E-2,1.2606557E-2,-1.0175642E-2,-1.5662693E-3,-8.805138E-3,-5.993376E-3,1.9608276E-2,8.152644E-3,-6.106348E-4,1.0209909E-2,-4.319151E-3,9.255007E-3,1.1476721E-2,-6.590785E-5],"categories":[],"categories_nodes":[],"categories_segments":[],"categories_sizes":[],"default_left":[0,0,0,0,0,0,0,0,0,0,0,0,0,0,0,0,0,0,0,0,0,0,0,0,0,0,0,0,0,0,0,0,0,0,0,0,0,0,0,0,0,0,0,0,0,0,0,0,0,0,0,0,0,0,0,0,0,0,0,0,0,0,0],"id":1,"left_children":[1,3,5,7,9,11,-1,13,15,17,19,21,23,25,27,29,31,33,-1,-1,35,-1,-1,37,39,-1,41,43,45,47,49,51,53,55,57,-1,-1,59,61,-1,-1,-1,-1,-1,-1,-1,-1,-1,-1,-1,-1,-1,-1,-1,-1,-1,-1,-1,-1,-1,-1,-1,-1],"loss_changes":[3.0939087E3,2.0626035E3,2.2263672E1,1.0879851E3,7.2648926E0,3.1304443E1,0E0,1.3590503E2,4.5571777E2,2.441742E0,1.591919E0,9.7579956E-1,5.707325E0,1.2992554E0,8.767862E1,1.9757466E3,4.0580933E1,2.3799744E0,0E0,0E0,3.2182443E0,0E0,0E0,2.9182339E0,5.961042E0,0E0,6.271145E0,5.169049E1,9.064871E0,1.0033923E2,5.8690186E0,6.369385E0,1.3116455E1,5.256958E-1,3.701064E0,0E0,0E0,8.907024E0,3.7988052E0,0E0,0E0,0E0,0E0,0E0,0E0,0E0,0E0,0E0,0E0,0E0,0E0,0E0,0E0,0E0,0E0,0E0,0E0,0E0,0E0,0E0,0E0,0E0,0E0],"parents":[2147483647,0,0,1,1,2,2,3,3,4,4,5,5,7,7,8,8,9,9,10,10,11,11,12,12,13,13,14,14,15,15,16,16,17,17,20,20,23,23,24,24,26,26,27,27,28,28,29,29,30,30,31,31,32,32,33,33,34,34,37,37,38,38],"right_children":[2,4,6,8,10,12,-1,14,16,18,20,22,24,26,28,30,32,34,-1,-1,36,-1,-1,38,40,-1,42,44,46,48,50,52,54,56,58,-1,-1,60,62,-1,-1,-1,-1,-1,-1,-1,-1,-1,-1,-1,-1,-1,-1,-1,-1,-1,-1,-1,-1,-1,-1,-1,-1],"split_conditions":[1E0,1.2334269E0,-2.7905548E-1,-1.2297587E0,1.4927096E0,-1.2297587E0,2.199218E-2,-1.4242207E0,8.877167E-1,1E0,1.2496505E0,1E0,-1.164938E0,1E0,1E0,-6.2986545E-2,9.5253736E-1,1E0,3.6289382E-3,1.37829585E-2,5.7537365E-1,1.970413E-2,5.6547066E-3,-9.6257347E-1,-6.7420834E-1,1.6434066E-2,-2.0508206E0,1E0,1E0,-1.164938E0,1E0,1E0,-2.036879E-1,3.6577528E0,-8.6645174E-1,-1.4692514E-3,7.86734E-3,1E0,1.0559821E0,5.460931E-3,-6.5235244E-3,-1.0546792E-3,1.1398999E-2,5.559014E-3,1.6386976E-2,-7.1425866E-3,4.8602875E-3,-3.2016917E-3,-6.9580274E-3,1.608566E-2,1.2606557E-2,-1.0175642E-2,-1.5662693E-3,-8.805138E-3,-5.993376E-3,1.9608276E-2,8.152644E-3,-6.106348E-4,1.0209909E-2,-4.319151E-3,9.255007E-3,1.1476721E-2,-6.590785E-5],"split_indices":[19,4,4,4,4,4,0,4,4,14,2,11,4,32,20,4,4,15,0,0,0,0,0,0,0,0,4,11,14,4,26,14,2,3,0,0,0,15,0,0,0,0,0,0,0,0,0,0,0,0,0,0,0,0,0,0,0,0,0,0,0,0,0],"split_type":[0,0,0,0,0,0,0,0,0,0,0,0,0,0,0,0,0,0,0,0,0,0,0,0,0,0,0,0,0,0,0,0,0,0,0,0,0,0,0,0,0,0,0,0,0,0,0,0,0,0,0,0,0,0,0,0,0,0,0,0,0,0,0],"sum_hessian":[8.014198E3,7.3681816E3,6.4601685E2,6.679839E3,6.883429E2,1.22954384E2,5.230625E2,7.282547E2,5.951584E3,1.24184654E2,5.641582E2,8.015741E1,4.2796978E1,1.7934383E2,5.489109E2,3.9522383E3,1.9993458E3,1.2012477E2,4.0598826E0,5.5580084E2,8.357389E0,7.466674E1,5.4906654E0,3.6143597E1,6.653382E0,1.401801E2,3.9163727E1,4.9260608E2,5.630478E1,3.4104922E3,5.41746E2,1.1647407E3,8.346051E2,1.0746749E2,1.2657282E1,3.8206387E0,4.536751E0,9.987046E0,2.615655E1,3.3267941E0,3.3265877E0,3.5825572E0,3.558117E1,4.4637213E2,4.623395E1,5.2741184E1,3.5635936E0,1.033529E3,2.3769631E3,2.9812158E2,2.4362437E2,1.1540537E3,1.0687004E1,3.1051263E2,5.2409247E2,9.695956E1,1.0507932E1,3.343433E0,9.313849E0,5.94467E0,4.042376E0,2.3065321E1,3.0912285E0],"tree_param":{"num_deleted":"0","num_feature":"37","num_nodes":"63","size_leaf_vector":"1"}},{"base_weights":[-2.6444573E-2,9.0974516E-1,-7.8853315E-1,1.9692641E-1,1.6635894E0,-8.088159E-1,1.7970992E-2,-3.4938434E-1,8.502285E-1,1.4163669E0,2.1932589E-2,-6.530603E-1,-9.798667E-1,-8.7061495E-2,-6.121757E-1,1.5790485E0,5.636776E-1,1.4963593E0,8.603862E-1,-7.948205E-1,-5.206839E-1,-3.9885262E-1,-1.005605E0,6.2138107E-2,-9.3774086E-1,-6.483659E-1,6.1557186E-1,1.6451972E0,4.7687852E-1,1.3231989E0,2.2691442E-1,1.3395888E0,1.7123265E-2,2.1634126E-1,1.264583E0,-4.7776905E-1,-8.7890625E-1,-3.280175E-1,-5.9459406E-1,-9.5982105E-1,3.5040706E-2,-1.1445775E0,-9.216682E-1,2.2764634E-3,-2.6771063E-3,-1.1139214E-3,-1.0569602E-2,-7.2860396E-3,-3.198987E-3,8.454176E-3,-9.999586E-4,1.6650919E-2,3.0288643E-3,-8.02373E-4,1.03582535E-2,1.3659535E-2,-2.2442224E-3,1.1291941E-2,-4.7473417E-4,1.3503408E-2,5.6692776E-3,-1.3651795E-4,9.348991E-3,9.48189E-3,1.7430212E-2,-2.6257182E-3,-7.6150433E-3,-2.1425677E-3,-9.0662455E-3,-3.3238655E-4,-4.3809274E-3,-4.4426788E-3,-7.994098E-3,-1.1520132E-2,3.7831925E-3,1.8889485E-3,-8.123236E-3,-1.2149782E-2,-8.85706E-3,-9.305815E-3,-2.8113948E-4],"categories":[],"categories_nodes":[],"categories_segments":[],"categories_sizes":[],"default_left":[0,0,0,0,0,0,0,0,0,0,0,0,0,0,0,0,0,0,0,0,0,0,0,0,0,0,0,0,0,0,0,0,0,0,0,0,0,0,0,0,0,0,0,0,0,0,0,0,0,0,0,0,0,0,0,0,0,0,0,0,0,0,0,0,0,0,0,0,0,0,0,0,0,0,0,0,0,0,0,0,0],"id":2,"left_children":[1,3,5,7,9,11,-1,13,15,17,-1,19,21,23,25,27,29,31,33,35,37,39,41,43,45,47,49,51,53,55,57,59,-1,61,63,65,67,69,71,73,75,77,79,-1,-1,-1,-1,-1,-1,-1,-1,-1,-1,-1,-1,-1,-1,-1,-1,-1,-1,-1,-1,-1,-1,-1,-1,-1,-1,-1,-1,-1,-1,-1,-1,-1,-1,-1,-1,-1,-1],"loss_changes":[5.672398E3,1.9155195E3,2.3710376E2,6.580119E2,2.1140381E2,1.1273242E2,0E0,6.902844E1,1.7078491E2,4.6725098E1,0E0,4.0945312E1,2.884851E1,6.489648E1,2.4272415E1,1.311908E1,1.5454268E2,2.3667236E1,4.0840492E1,2.7150269E1,1.6106781E1,2.3510868E1,1.7723022E1,2.4198683E1,6.913002E0,1.1723694E1,3.2117066E0,3.3001099E0,6.746646E0,1.3876587E1,1.064274E2,1.3438721E0,0E0,1.1407403E1,6.6370544E0,1.3709656E1,1.4890808E1,1.1083252E1,2.4729431E1,1.2987408E1,8.435707E0,7.7627563E0,9.862915E0,0E0,0E0,0E0,0E0,0E0,0E0,0E0,0E0,0E0,0E0,0E0,0E0,0E0,0E0,0E0,0E0,0E0,0E0,0E0,0E0,0E0,0E0,0E0,0E0,0E0,0E0,0E0,0E0,0E0,0E0,0E0,0E0,0E0,0E0,0E0,0E0,0E0,0E0],"parents":[2147483647,0,0,1,1,2,2,3,3,4,4,5,5,7,7,8,8,9,9,11,11,12,12,13,13,14,14,15,15,16,16,17,17,18,18,19,19,20,20,21,21,22,22,23,23,24,24,25,25,26,26,27,27,28,28,29,29,30,30,31,31,33,33,34,34,35,35,36,36,37,37,38,38,39,39,40,40,41,41,42,42],"right_children":[2,4,6,8,10,12,-1,14,16,18,-1,20,22,24,26,28,30,32,34,36,38,40,42,44,46,48,50,52,54,56,58,60,-1,62,64,66,68,70,72,74,76,78,80,-1,-1,-1,-1,-1,-1,-1,-1,-1,-1,-1,-1,-1,-1,-1,-1,-1,-1,-1,-1,-1,-1,-1,-1,-1,-1,-1,-1,-1,-1,-1,-1,-1,-1,-1,-1,-1,-1],"split_conditions":[-1.7235972E-2,-2.7905548E-1,1E0,-2.3042002E0,1E0,1E0,1.7970992E-2,-2.3234491E0,-1.4242207E0,1E0,2.1932589E-2,1.1855487E0,1.1867708E0,8.863159E-1,1E0,1E0,-2.15418E0,-2.8120985E0,8.877167E-1,1.3012056E-2,1.5332341E0,3.4705088E-2,1.2011372E0,-1.935999E-1,-1.3470602E0,4.7925198E-1,-2.036879E-1,1E0,1E0,2.4978075E0,-8.6645174E-1,1E0,1.7123265E-2,1.5964669E-1,-3.2494135E0,9.47652E-2,-9.6257347E-1,-3.2226926E-1,-1.3564974E-3,1.3443472E0,1E0,1E0,1E0,2.2764634E-3,-2.6771063E-3,-1.1139214E-3,-1.0569602E-2,-7.2860396E-3,-3.198987E-3,8.454176E-3,-9.999586E-4,1.6650919E-2,3.0288643E-3,-8.02373E-4,1.03582535E-2,1.3659535E-2,-2.2442224E-3,1.1291941E-2,-4.7473417E-4,1.3503408E-2,5.6692776E-3,-1.3651795E-4,9.348991E-3,9.48189E-3,1.7430212E-2,-2.6257182E-3,-7.6150433E-3,-2.1425677E-3,-9.0662455E-3,-3.3238655E-4,-4.3809274E-3,-4.4426788E-3,-7.994098E-3,-1.1520132E-2,3.7831925E-3,1.8889485E-3,-8.123236E-3,-1.2149782E-2,-8.85706E-3,-9.305815E-3,-2.8113948E-4],"split_indices":[36,4,30,36,19,22,0,36,4,22,0,36,36,2,19,22,36,36,4,36,36,36,36,0,0,0,2,12,19,0,0,8,0,2,36,0,0,4,0,0,18,6,14,0,0,0,0,0,0,0,0,0,0,0,0,0,0,0,0,0,0,0,0,0,0,0,0,0,0,0,0,0,0,0,0,0,0,0,0,0,0],"split_type":[0,0,0,0,0,0,0,0,0,0,0,0,0,0,0,0,0,0,0,0,0,0,0,0,0,0,0,0,0,0,0,0,0,0,0,0,0,0,0,0,0,0,0,0,0,0,0,0,0,0,0,0,0,0,0,0,0,0,0,0,0,0,0,0,0,0,0,0,0,0,0,0,0,0,0,0,0,0,0,0,0],"sum_hessian":[7.940528E3,3.5628066E3,4.377721E3,1.8344807E3,1.7283259E3,4.347061E3,3.0660303E1,1.0003058E3,8.341749E2,1.1908759E3,5.3745E2,2.2878955E3,2.0591653E3,5.0394937E2,4.9635638E2,2.2904051E2,6.051344E2,1.0336791E3,1.5719678E2,1.0926716E3,1.195224E3,9.086449E1,1.9683009E3,4.3268442E2,7.126496E1,4.8444415E2,1.1912247E1,2.1374004E2,1.5300476E1,1.8138065E2,4.2375375E2,6.198151E2,4.1386395E2,6.358373E1,9.3613045E1,2.3607239E2,8.5659924E2,3.3896027E2,8.562637E2,3.699595E1,5.3868538E1,7.1733044E2,1.2509705E3,2.8916806E2,1.4351636E2,1.0215252E1,6.104971E1,3.8441718E2,1.0002696E2,8.340022E0,3.5722246E0,2.0942628E2,4.3137455E0,9.798465E0,5.502012E0,1.7708197E2,4.2986875E0,9.5191574E1,3.2856216E2,6.076087E2,1.2206447E1,5.187188E1,1.1711847E1,6.533607E1,2.8276981E1,1.3974557E2,9.632682E1,3.6055103E1,8.205441E2,9.3954124E1,2.4500615E2,5.0298672E2,3.5327698E2,3.296434E1,4.031607E0,4.8889053E1,4.979483E0,5.494112E2,1.6791924E2,1.2383988E3,1.2571644E1],"tree_param":{"num_deleted":"0","num_feature":"37","num_nodes":"81","size_leaf_vector":"1"}},{"base_weights":[-1.1922146E-2,-2.0765437E-1,2.067505E0,-1.101971E-2,-6.6246283E-1,2.0739013E-2,4.0393434E-3,1.3003586E-1,-7.0878357E-1,-5.9365153E-1,-8.7339765E-1,6.881166E-2,1.6037961E-2,-7.252077E-1,8.47733E-3,-5.537043E-1,-1.139729E0,-8.8716304E-1,-3.594843E-1,-4.5513846E-3,1.4423047E0,-7.381051E-1,8.34007E-3,-5.693668E-1,1.5101981E-1,-1.1718814E-2,-4.1999778E-4,-8.2860744E-1,-1.0730644E0,-6.290119E-1,3.8364646E-3,-8.058727E-4,1.1014392E-2,1.4654476E-2,-2.4614134E-4,-7.507674E-3,7.2974884E-3,-5.7811295E-3,7.3094777E-4,-2.8839316E-3,9.426162E-3,-8.400673E-3,-7.30002E-4,-1.139895E-2,2.8124554E-4,-1.536413E-3,-8.772195E-3],"categories":[],"categories_nodes":[],"categories_segments":[],"categories_sizes":[],"default_left":[0,0,0,0,0,0,0,0,0,0,0,0,0,0,0,0,0,0,0,0,0,0,0,0,0,0,0,0,0,0,0,0,0,0,0,0,0,0,0,0,0,0,0,0,0,0,0],"id":3,"left_children":[1,3,5,7,9,-1,-1,11,13,15,17,19,-1,21,-1,23,25,27,29,31,33,35,-1,37,39,-1,-1,41,43,45,-1,-1,-1,-1,-1,-1,-1,-1,-1,-1,-1,-1,-1,-1,-1,-1,-1],"loss_changes":[3.2456792E3,6.517446E2,3.08667E0,5.0177335E2,2.9322266E1,0E0,0E0,3.821032E2,2.4988708E1,3.3352173E1,2.1454773E0,4.108758E2,0E0,2.0191101E1,0E0,1.7762726E1,3.6027374E0,1.1216125E0,5.6681986E0,3.263349E2,7.2138977E0,1.8476929E1,0E0,8.852173E0,1.4608405E1,0E0,0E0,3.2539978E0,7.9676743E0,1.4681501E0,0E0,0E0,0E0,0E0,0E0,0E0,0E0,0E0,0E0,0E0,0E0,0E0,0E0,0E0,0E0,0E0,0E0],"parents":[2147483647,0,0,1,1,2,2,3,3,4,4,7,7,8,8,9,9,10,10,11,11,13,13,15,15,16,16,17,17,18,18,19,19,20,20,21,21,23,23,24,24,27,27,28,28,29,29],"right_children":[2,4,6,8,10,-1,-1,12,14,16,18,20,-1,22,-1,24,26,28,30,32,34,36,-1,38,40,-1,-1,42,44,46,-1,-1,-1,-1,-1,-1,-1,-1,-1,-1,-1,-1,-1,-1,-1,-1,-1],"split_conditions":[1E0,1E0,1.612985E0,1E0,1E0,2.0739013E-2,4.0393434E-3,1E0,1E0,1.2496505E0,1E0,1E0,1.6037961E-2,1E0,8.47733E-3,1E0,6.3363347E0,1E0,5.229813E-1,1E0,5.6616926E0,3.6577528E0,8.34007E-3,3.6577528E0,1E0,-1.1718814E-2,-4.1999778E-4,1E0,1.6538129E0,-2.036879E-1,3.8364646E-3,-8.058727E-4,1.1014392E-2,1.4654476E-2,-2.4614134E-4,-7.507674E-3,7.2974884E-3,-5.7811295E-3,7.3094777E-4,-2.8839316E-3,9.426162E-3,-8.400673E-3,-7.30002E-4,-1.139895E-2,2.8124554E-4,-1.536413E-3,-8.772195E-3],"split_indices":[19,28,2,20,20,0,0,27,27,2,11,30,0,30,0,14,2,34,2,11,3,3,0,3,18,0,0,14,3,2,0,0,0,0,0,0,0,0,0,0,0,0,0,0,0,0,0],"split_type":[0,0,0,0,0,0,0,0,0,0,0,0,0,0,0,0,0,0,0,0,0,0,0,0,0,0,0,0,0,0,0,0,0,0,0,0,0,0,0,0,0,0,0,0,0,0,0],"sum_hessian":[7.9641997E3,7.2831567E3,6.8104315E2,5.0883647E3,2.1947917E3,6.772001E2,3.8431199E0,4.2360796E3,8.522854E2,1.6693386E3,5.2545306E2,4.072151E3,1.639285E2,8.4603503E2,6.2503963E0,1.5649463E3,1.0439244E2,5.0819006E2,1.7263012E1,3.8703958E3,2.0175517E2,8.417121E2,4.3229103E0,1.5318749E3,3.3071323E1,1.0108481E2,3.307632E0,4.072527E2,1.0093736E2,1.324165E1,4.0213614E0,3.625772E3,2.4462393E2,1.9863324E2,3.1219199E0,8.369418E2,4.770367E0,1.5118102E3,2.0064754E1,2.3302143E1,9.769181E0,4.0060483E2,6.6478686E0,9.50049E1,5.932463E0,7.3328943E0,5.908756E0],"tree_param":{"num_deleted":"0","num_feature":"37","num_nodes":"47","size_leaf_vector":"1"}},{"base_weights":[-9.530651E-3,-2.1232407E-1,1.5287105E0,5.754633E-2,-9.0825176E-1,1.8300273E0,1.4393351E0,-2.5972083E-1,1.7129939E0,-1.0357997E0,-7.278933E-1,1.8588547E-2,6.399919E-1,1.2747255E-2,1.6122468E0,8.90575E-1,-5.297791E-1,1.4102839E0,1.8306762E-2,-1.042827E0,-2.5621533E-1,-9.2725056E-1,-5.978094E-1,-1.2535594E-3,1.0353247E-2,7.275609E-1,1.6361197E0,1.6324857E0,5.656875E-1,-2.2469193E-1,-6.6309243E-1,1.452126E0,4.6291158E-1,-5.064295E-1,-1.0547651E0,-6.221317E-1,4.316129E-3,-5.955018E-1,-9.8675615E-1,-6.8639743E-1,-2.782742E-1,8.989545E-3,-3.2048477E-4,1.6615879E-2,8.032707E-1,1.6784294E-2,5.4008076E-3,2.7700088E-3,1.0838851E-2,-1.6001061E-3,-7.593647E-3,-5.424243E-3,-7.722046E-3,1.4965045E-2,5.655721E-3,1.7043576E-3,5.975803E-3,-9.259835E-3,7.882777E-5,-1.0576169E-2,-4.1305265E-4,-7.9148E-3,-4.886317E-4,-0E0,-7.0104734E-3,-1.0295054E-2,-5.7884203E-3,-7.3103225E-3,-4.9573014E-6,-8.007187E-3,4.1412833E-4,1.006522E-3,1.0304882E-2],"categories":[],"categories_nodes":[],"categories_segments":[],"categories_sizes":[],"default_left":[0,0,0,0,0,0,0,0,0,0,0,0,0,0,0,0,0,0,0,0,0,0,0,0,0,0,0,0,0,0,0,0,0,0,0,0,0,0,0,0,0,0,0,0,0,0,0,0,0,0,0,0,0,0,0,0,0,0,0,0,0,0,0,0,0,0,0,0,0,0,0,0,0],"id":4,"left_children":[1,3,5,7,9,11,13,15,17,19,21,-1,23,-1,25,27,29,31,-1,33,35,37,39,-1,-1,41,43,45,47,49,51,53,55,57,59,61,-1,63,65,67,69,-1,-1,-1,71,-1,-1,-1,-1,-1,-1,-1,-1,-1,-1,-1,-1,-1,-1,-1,-1,-1,-1,-1,-1,-1,-1,-1,-1,-1,-1,-1,-1],"loss_changes":[2.4918352E3,1.3257323E3,1.1854248E1,2.675657E3,4.1585205E1,6.9592285E-1,1.07873535E1,1.3306217E3,1.6244629E1,4.9154053E0,1.883847E1,0E0,4.358848E0,0E0,1.2578125E0,1.9176672E2,1.4021484E2,6.5751953E0,0E0,4.5600586E0,5.5870957E0,3.3664856E0,1.3718704E1,0E0,0E0,2.4980145E0,2.9040527E-1,7.7664795E0,8.4405045E1,3.6095345E1,2.9615845E1,5.118164E0,1.9097972E-1,7.4411755E0,2.956543E0,1.0661712E0,0E0,3.8563194E0,1.6051025E0,1.231929E1,2.038733E1,0E0,0E0,0E0,2.5779915E0,0E0,0E0,0E0,0E0,0E0,0E0,0E0,0E0,0E0,0E0,0E0,0E0,0E0,0E0,0E0,0E0,0E0,0E0,0E0,0E0,0E0,0E0,0E0,0E0,0E0,0E0,0E0,0E0],"parents":[2147483647,0,0,1,1,2,2,3,3,4,4,5,5,6,6,7,7,8,8,9,9,10,10,12,12,14,14,15,15,16,16,17,17,19,19,20,20,21,21,22,22,25,25,26,26,27,27,28,28,29,29,30,30,31,31,32,32,33,33,34,34,35,35,37,37,38,38,39,39,40,40,44,44],"right_children":[2,4,6,8,10,12,14,16,18,20,22,-1,24,-1,26,28,30,32,-1,34,36,38,40,-1,-1,42,44,46,48,50,52,54,56,58,60,62,-1,64,66,68,70,-1,-1,-1,72,-1,-1,-1,-1,-1,-1,-1,-1,-1,-1,-1,-1,-1,-1,-1,-1,-1,-1,-1,-1,-1,-1,-1,-1,-1,-1,-1,-1],"split_conditions":[1.2334269E0,8.877167E-1,1.4927096E0,-6.2986545E-2,9.5253736E-1,8.863159E-1,1.6538129E0,-1.2297587E0,2.3441019E-2,1E0,-2.036879E-1,1.8588547E-2,1.9210774E0,1.2747255E-2,1.622351E0,-1.4242207E0,-1.164938E0,1E0,1.8306762E-2,-1.3470602E0,1E0,-7.703301E-1,1E0,-1.2535594E-3,1.0353247E-2,1E0,1E0,8.863159E-1,1E0,8.863159E-1,-1.935999E-1,1E0,5.236761E-1,1E0,7.4263387E0,-6.7420834E-1,4.316129E-3,5.236761E-1,1E0,1E0,1E0,8.989545E-3,-3.2048477E-4,1.6615879E-2,-2.036879E-1,1.6784294E-2,5.4008076E-3,2.7700088E-3,1.0838851E-2,-1.6001061E-3,-7.593647E-3,-5.424243E-3,-7.722046E-3,1.4965045E-2,5.655721E-3,1.7043576E-3,5.975803E-3,-9.259835E-3,7.882777E-5,-1.0576169E-2,-4.1305265E-4,-7.9148E-3,-4.886317E-4,-0E0,-7.0104734E-3,-1.0295054E-2,-5.7884203E-3,-7.3103225E-3,-4.9573014E-6,-8.007187E-3,4.1412833E-4,1.006522E-3,1.0304882E-2],"split_indices":[4,4,4,4,4,2,3,4,4,14,2,0,0,0,4,4,4,13,0,0,35,0,34,0,0,35,7,2,33,2,0,10,1,17,2,0,0,1,7,10,17,0,0,0,2,0,0,0,0,0,0,0,0,0,0,0,0,0,0,0,0,0,0,0,0,0,0,0,0,0,0,0,0],"split_type":[0,0,0,0,0,0,0,0,0,0,0,0,0,0,0,0,0,0,0,0,0,0,0,0,0,0,0,0,0,0,0,0,0,0,0,0,0,0,0,0,0,0,0,0,0,0,0,0,0,0,0,0,0,0,0,0,0,0,0,0,0,0,0,0,0,0,0,0,0,0,0,0,0],"sum_hessian":[7.9778945E3,7.0524536E3,9.2544116E2,5.0850996E3,1.9673539E3,1.8940324E2,7.360379E2,4.2708076E3,8.1429236E2,1.1384683E3,8.288856E2,1.8217181E2,7.231427E0,3.9854605E2,3.3749185E2,8.098362E2,3.4609712E3,2.4614546E2,5.681469E2,1.1266117E3,1.185657E1,3.1516656E2,5.1371906E2,3.6174505E0,3.6139765E0,1.3014104E1,3.2447775E2,2.4049313E2,5.693431E2,1.0565538E3,2.4044175E3,2.3317256E2,1.2972908E1,2.9273035E1,1.0973386E3,8.0605545E0,3.796015E0,5.632965E1,2.588369E2,3.976911E2,1.1602794E2,9.880645E0,3.1334593E0,3.100104E2,1.4467346E1,2.2820406E2,1.2289075E1,3.705838E2,1.9875925E2,9.4834424E2,1.0820958E2,1.1559694E3,1.248448E3,2.1877019E2,1.4402368E1,7.6849103E0,5.2879972E0,1.3928252E1,1.5344784E1,1.0940323E3,3.306255E0,4.7397323E0,3.3208227E0,9.230195E0,4.7099453E1,2.2736546E2,3.1471464E1,3.7307013E2,2.4620981E1,4.1201954E1,7.482598E1,5.3090897E0,9.158257E0],"tree_param":{"num_deleted":"0","num_feature":"37","num_nodes":"73","size_leaf_vector":"1"}},{"base_weights":[-1.965233E-3,8.884682E-1,-7.2691417E-1,1.3521786E0,-1.0388401E-1,-6.072225E-1,-1.0680891E0,1.5910511E0,5.621861E-1,1.868099E-2,-2.942038E-1,-5.409768E-1,-8.207991E-1,-1.17147835E-2,-8.913133E-1,1.3856887E0,2.0991815E-2,2.4786776E-1,1.6279308E-2,-3.831238E-1,1.2963026E0,-4.594617E-1,-7.0246774E-1,-8.7327385E-1,-5.510775E-1,-8.179468E-1,-1.3014195E-2,1.2514098E0,1.5180237E0,1.16558425E-1,1.5181519E0,-4.543225E-1,7.988219E-1,4.5305017E-1,1.4975738E-2,-4.2269912E-1,-9.637399E-1,-9.6162474E-1,-4.5127666E-1,-1.0256066E0,-7.9444313E-1,-5.932709E-1,3.8282012E-3,-8.863032E-1,-4.0795526E-1,1.30516775E-2,9.511794E-3,1.5328012E-2,-2.8204995E-3,-1.2043151E-3,5.5607185E-3,1.6821621E-2,1.5865165E-3,-1.709334E-3,-7.352008E-3,8.393943E-3,1.80073E-3,8.566308E-4,5.7801786E-3,-2.770684E-3,-5.2135577E-3,-1.1054188E-2,-1.7994622E-3,-1.038058E-2,-3.7276857E-3,-6.068111E-3,-1.7871445E-3,-1.1575473E-2,-6.8411157E-3,-7.397291E-3,-1.2751019E-2,-7.1549355E-3,-2.3925467E-3,-7.194969E-3,-9.543469E-3,-6.3602924E-3,2.3745806E-3],"categories":[],"categories_nodes":[],"categories_segments":[],"categories_sizes":[],"default_left":[0,0,0,0,0,0,0,0,0,0,0,0,0,0,0,0,0,0,0,0,0,0,0,0,0,0,0,0,0,0,0,0,0,0,0,0,0,0,0,0,0,0,0,0,0,0,0,0,0,0,0,0,0,0,0,0,0,0,0,0,0,0,0,0,0,0,0,0,0,0,0,0,0,0,0,0,0],"id":5,"left_children":[1,3,5,7,9,11,13,15,17,-1,19,21,23,-1,25,27,-1,29,-1,31,33,35,37,39,41,43,-1,45,47,49,51,53,55,57,-1,59,61,63,65,67,69,71,-1,73,75,-1,-1,-1,-1,-1,-1,-1,-1,-1,-1,-1,-1,-1,-1,-1,-1,-1,-1,-1,-1,-1,-1,-1,-1,-1,-1,-1,-1,-1,-1,-1,-1],"loss_changes":[5.1784575E3,1.6573857E3,1.7731592E2,4.5859326E2,4.3477838E2,4.424646E1,1.5627563E1,1.817583E2,1.9141248E2,0E0,1.5156445E2,3.1575806E1,8.449951E0,0E0,7.9645996E0,1.4546387E1,0E0,7.447034E1,0E0,8.615184E1,6.2538147E0,2.9290314E1,5.2273132E1,3.5256348E0,6.6018486E0,9.071899E0,0E0,5.0826416E0,1.969812E1,4.3561146E1,7.992073E0,7.485977E1,7.088547E-1,5.7917833E-1,0E0,2.2037018E1,1.131292E1,1.6382996E1,1.7858566E1,4.993103E0,6.842102E0,4.960518E0,0E0,2.8240967E-1,1.0301718E1,0E0,0E0,0E0,0E0,0E0,0E0,0E0,0E0,0E0,0E0,0E0,0E0,0E0,0E0,0E0,0E0,0E0,0E0,0E0,0E0,0E0,0E0,0E0,0E0,0E0,0E0,0E0,0E0,0E0,0E0,0E0,0E0],"parents":[2147483647,0,0,1,1,2,2,3,3,4,4,5,5,6,6,7,7,8,8,10,10,11,11,12,12,14,14,15,15,17,17,19,19,20,20,21,21,22,22,23,23,24,24,25,25,27,27,28,28,29,29,30,30,31,31,32,32,33,33,35,35,36,36,37,37,38,38,39,39,40,40,41,41,43,43,44,44],"right_children":[2,4,6,8,10,12,14,16,18,-1,20,22,24,-1,26,28,-1,30,-1,32,34,36,38,40,42,44,-1,46,48,50,52,54,56,58,-1,60,62,64,66,68,70,72,-1,74,76,-1,-1,-1,-1,-1,-1,-1,-1,-1,-1,-1,-1,-1,-1,-1,-1,-1,-1,-1,-1,-1,-1,-1,-1,-1,-1,-1,-1,-1,-1,-1,-1],"split_conditions":[-1.7235972E-2,1E0,1E0,-2.15418E0,-2.3418157E0,1.5362895E0,1.2011372E0,1E0,-1.85333E0,1.868099E-2,1E0,1E0,1E0,-1.17147835E-2,8.863159E-1,-2.8120985E0,2.0991815E-2,1E0,1.6279308E-2,-2.3042002E0,-2.3298652E0,1.6538129E0,1.1852431E0,-2.036879E-1,1E0,1E0,-1.3014195E-2,1E0,1.9763197E0,1E0,-2.1450138E0,-2.3234491E0,1E0,1E0,1.4975738E-2,1.5332341E0,1E0,1E0,1.5964669E-1,1E0,3.429658E0,1E0,3.8282012E-3,1E0,1E0,1.30516775E-2,9.511794E-3,1.5328012E-2,-2.8204995E-3,-1.2043151E-3,5.5607185E-3,1.6821621E-2,1.5865165E-3,-1.709334E-3,-7.352008E-3,8.393943E-3,1.80073E-3,8.566308E-4,5.7801786E-3,-2.770684E-3,-5.2135577E-3,-1.1054188E-2,-1.7994622E-3,-1.038058E-2,-3.7276857E-3,-6.068111E-3,-1.7871445E-3,-1.1575473E-2,-6.8411157E-3,-7.397291E-3,-1.2751019E-2,-7.1549355E-3,-2.3925467E-3,-7.194969E-3,-9.543469E-3,-6.3602924E-3,2.3745806E-3],"split_indices":[36,28,28,36,36,36,36,19,36,0,19,23,35,0,2,36,0,11,0,36,36,3,36,2,11,18,0,32,2,6,36,36,7,5,0,36,18,32,2,20,2,6,0,5,6,0,0,0,0,0,0,0,0,0,0,0,0,0,0,0,0,0,0,0,0,0,0,0,0,0,0,0,0,0,0,0,0],"split_type":[0,0,0,0,0,0,0,0,0,0,0,0,0,0,0,0,0,0,0,0,0,0,0,0,0,0,0,0,0,0,0,0,0,0,0,0,0,0,0,0,0,0,0,0,0,0,0,0,0,0,0,0,0,0,0,0,0,0,0,0,0,0,0,0,0,0,0,0,0,0,0,0,0,0,0,0,0],"sum_hessian":[8.012163E3,3.5951746E3,4.416989E3,2.448995E3,1.1461793E3,3.2801633E3,1.1368253E3,1.8765071E3,5.7248816E2,9.699923E1,1.04918E3,2.51713E3,7.6303345E2,6.995151E2,4.3731018E2,1.3496833E3,5.268237E2,4.468667E2,1.2562142E2,9.972301E2,5.1949978E1,1.6855889E3,8.31541E2,6.293642E2,1.3366925E2,3.8366977E2,5.3640427E1,6.959091E2,6.5377423E2,4.0995618E2,3.6910534E1,9.434826E2,5.3747498E1,1.3152067E1,3.8797913E1,1.5796418E3,1.0594704E2,4.0230096E2,4.2924005E2,1.9410233E2,4.3526187E2,1.2964624E2,4.0230093E0,3.238433E2,5.9826454E1,5.7600287E2,1.1990626E2,6.491926E2,4.5815635E0,2.6868552E2,1.4127066E2,3.1871504E1,5.039029E0,4.736635E2,4.698191E2,4.8751606E1,4.995888E0,5.497535E0,7.6545324E0,6.456774E2,9.339644E2,8.7979355E1,1.7967678E1,3.5269067E2,4.961029E1,2.6936295E2,1.598771E2,1.313689E2,6.2733425E1,4.021952E2,3.3066666E1,9.2557495E1,3.7088737E1,1.106375E2,2.1320581E2,4.4270493E1,1.5555963E1],"tree_param":{"num_deleted":"0","num_feature":"37","num_nodes":"77","size_leaf_vector":"1"}},{"base_weights":[-1.7254092E-2,8.6322653E-1,-7.37492E-1,1.3281081E0,-1.19153574E-1,-6.2634385E-1,-1.0518236E0,1.5816389E0,4.5175052E-1,1.8545073E0,-3.2640266E-1,-6.1027914E-1,-1.2069985E-2,-1.1046315E0,-8.51978E-1,1.4037184E0,1.7662328E0,1.9963227E-1,1.3949382E0,1.9689988E-2,6.2322843E-1,-4.0512782E-1,9.0129316E-1,-5.5087185E-1,-7.1677357E-1,-1.1380632E0,-5.6425494E-1,-9.3584174E-1,-3.827533E-1,1.4868156E0,7.8211457E-1,1.777833E0,3.7435547E-1,7.9753375E-1,-1.1787446E-1,1.488662E0,5.5447876E-1,9.414231E-3,1.5614796E-4,-8.395759E-2,-6.076557E-1,1.8543583E-1,1.0676022E0,-4.624596E-1,-6.244376E-1,-6.5673125E-1,-9.2315215E-1,-1.1609555E0,-5.794254E-1,-7.5269145E-1,8.938407E-3,-6.7522544E-1,-1.0967398E0,-5.100529E-1,4.9143885E-3,1.3061749E-2,1.696524E-2,1.080244E-2,6.551644E-4,1.7837347E-2,4.747204E-3,-1.761261E-3,6.811307E-3,2.6799538E-3,9.97503E-3,-4.362966E-3,9.366506E-3,1.6217733E-2,8.305964E-3,-2.4668642E-3,8.672496E-3,7.341792E-4,-1.0211493E-2,-6.6233585E-3,-1.8188093E-3,5.0252844E-3,-3.219956E-3,1.1523183E-2,-5.495187E-4,-1.5465707E-3,-4.951291E-3,-5.7082954E-3,-8.207166E-3,-6.8215528E-3,-3.5020916E-3,-1.0066145E-2,-4.761522E-3,-1.1772053E-2,-6.336497E-3,5.6150835E-3,-8.33069E-3,-7.976936E-3,1.1695985E-4,-8.940045E-3,-2.4910173E-3,-1.1233E-2,-7.601405E-4,-8.30751E-3,1.2112256E-3],"categories":[],"categories_nodes":[],"categories_segments":[],"categories_sizes":[],"default_left":[0,0,0,0,0,0,0,0,0,0,0,0,0,0,0,0,0,0,0,0,0,0,0,0,0,0,0,0,0,0,0,0,0,0,0,0,0,0,0,0,0,0,0,0,0,0,0,0,0,0,0,0,0,0,0,0,0,0,0,0,0,0,0,0,0,0,0,0,0,0,0,0,0,0,0,0,0,0,0,0,0,0,0,0,0,0,0,0,0,0,0,0,0,0,0,0,0,0,0],"id":6,"left_children":[1,3,5,7,9,11,13,15,17,19,21,23,-1,25,27,29,31,33,35,-1,37,39,41,43,45,47,49,51,53,55,57,59,61,63,65,67,69,-1,-1,71,73,75,77,79,81,83,85,87,89,91,-1,93,95,97,-1,-1,-1,-1,-1,-1,-1,-1,-1,-1,-1,-1,-1,-1,-1,-1,-1,-1,-1,-1,-1,-1,-1,-1,-1,-1,-1,-1,-1,-1,-1,-1,-1,-1,-1,-1,-1,-1,-1,-1,-1,-1,-1,-1,-1],"loss_changes":[4.9821343E3,1.6151892E3,1.4766553E2,5.29626E2,4.693427E2,2.6193848E1,7.1101074E0,4.8640137E1,1.2831165E2,9.215881E0,1.0194897E2,1.7807007E1,0E0,1.2492554E1,8.281647E0,4.4328857E1,1.1071777E1,8.330194E1,4.849457E0,0E0,3.1269736E0,6.3288574E1,6.613613E0,1.1748779E1,1.0629211E1,7.0360107E0,2.0021952E1,5.251602E0,6.521819E0,2.1131836E1,2.6357826E1,2.5458984E0,2.9223802E0,1.4744324E1,9.918468E1,1.9806366E0,5.9465866E0,0E0,0E0,5.697023E1,1.3319748E1,3.7268174E0,5.1632423E0,9.076248E0,9.151733E0,5.5932007E0,6.4071503E0,2.9141846E0,1.4514607E1,1.9951077E0,0E0,7.7042465E0,2.9297943E0,9.373468E0,0E0,0E0,0E0,0E0,0E0,0E0,0E0,0E0,0E0,0E0,0E0,0E0,0E0,0E0,0E0,0E0,0E0,0E0,0E0,0E0,0E0,0E0,0E0,0E0,0E0,0E0,0E0,0E0,0E0,0E0,0E0,0E0,0E0,0E0,0E0,0E0,0E0,0E0,0E0,0E0,0E0,0E0,0E0,0E0,0E0],"parents":[2147483647,0,0,1,1,2,2,3,3,4,4,5,5,6,6,7,7,8,8,9,9,10,10,11,11,13,13,14,14,15,15,16,16,17,17,18,18,20,20,21,21,22,22,23,23,24,24,25,25,26,26,27,27,28,28,29,29,30,30,31,31,32,32,33,33,34,34,35,35,36,36,39,39,40,40,41,41,42,42,43,43,44,44,45,45,46,46,47,47,48,48,49,49,51,51,52,52,53,53],"right_children":[2,4,6,8,10,12,14,16,18,20,22,24,-1,26,28,30,32,34,36,-1,38,40,42,44,46,48,50,52,54,56,58,60,62,64,66,68,70,-1,-1,72,74,76,78,80,82,84,86,88,90,92,-1,94,96,98,-1,-1,-1,-1,-1,-1,-1,-1,-1,-1,-1,-1,-1,-1,-1,-1,-1,-1,-1,-1,-1,-1,-1,-1,-1,-1,-1,-1,-1,-1,-1,-1,-1,-1,-1,-1,-1,-1,-1,-1,-1,-1,-1,-1,-1],"split_conditions":[-1.7235972E-2,1E0,1E0,-2.15418E0,-2.3418157E0,3.429658E0,1E0,1.6538129E0,-1.85333E0,1E0,-2.3042002E0,3.8313028E-1,-1.2069985E-2,1.2029704E0,1E0,1E0,1E0,-5.780867E-1,1E0,1.9689988E-2,-8.6645174E-1,-2.3265045E0,-4.8196498E-1,1E0,1.5362895E0,1E0,2.7029889E0,-2.036879E-1,1E0,-2.8075154E0,-2.4099777E0,1.612985E0,-2.8120985E0,1E0,1.3443472E0,1E0,-6.7420834E-1,9.414231E-3,1.5614796E-4,8.863159E-1,-2.3072557E0,-8.6645174E-1,1E0,-1.1548169E0,1E0,1E0,1E0,1E0,-7.703301E-1,1E0,8.938407E-3,1.2011372E0,1.3443472E0,1.5964669E-1,4.9143885E-3,1.3061749E-2,1.696524E-2,1.080244E-2,6.551644E-4,1.7837347E-2,4.747204E-3,-1.761261E-3,6.811307E-3,2.6799538E-3,9.97503E-3,-4.362966E-3,9.366506E-3,1.6217733E-2,8.305964E-3,-2.4668642E-3,8.672496E-3,7.341792E-4,-1.0211493E-2,-6.6233585E-3,-1.8188093E-3,5.0252844E-3,-3.219956E-3,1.1523183E-2,-5.495187E-4,-1.5465707E-3,-4.951291E-3,-5.7082954E-3,-8.207166E-3,-6.8215528E-3,-3.5020916E-3,-1.0066145E-2,-4.761522E-3,-1.1772053E-2,-6.336497E-3,5.6150835E-3,-8.33069E-3,-7.976936E-3,1.1695985E-4,-8.940045E-3,-2.4910173E-3,-1.1233E-2,-7.601405E-4,-8.30751E-3,1.2112256E-3],"split_indices":[36,28,28,36,36,2,6,3,36,22,36,0,0,36,18,22,8,0,22,0,0,36,0,17,36,8,2,2,14,36,36,2,36,6,0,32,0,0,0,2,36,0,11,0,32,11,18,9,0,9,0,36,0,2,0,0,0,0,0,0,0,0,0,0,0,0,0,0,0,0,0,0,0,0,0,0,0,0,0,0,0,0,0,0,0,0,0,0,0,0,0,0,0,0,0,0,0,0,0],"split_type":[0,0,0,0,0,0,0,0,0,0,0,0,0,0,0,0,0,0,0,0,0,0,0,0,0,0,0,0,0,0,0,0,0,0,0,0,0,0,0,0,0,0,0,0,0,0,0,0,0,0,0,0,0,0,0,0,0,0,0,0,0,0,0,0,0,0,0,0,0,0,0,0,0,0,0,0,0,0,0,0,0,0,0,0,0,0,0,0,0,0,0,0,0,0,0,0,0,0,0],"sum_hessian":[7.84631E3,3.529968E3,4.316342E3,2.3949033E3,1.1350647E3,3.1998604E3,1.1164816E3,1.8543912E3,5.4051215E2,1.0408262E2,1.030982E3,3.1237104E3,7.6149925E1,8.6517694E2,2.5130469E2,9.661985E2,8.8819275E2,4.3129422E2,1.0921796E2,9.247947E1,1.1603152E1,9.7201074E2,5.8971325E1,2.0250222E3,1.0986884E3,8.095439E2,5.563303E1,2.0896349E2,4.2341198E1,8.461129E2,1.2008554E2,8.794695E2,8.723275E0,1.4698218E2,2.8431204E2,9.478039E1,1.4437572E1,5.8016176E0,5.801535E0,3.7865652E2,5.933542E2,1.3122453E1,4.5848873E1,9.3631464E2,1.0887075E3,8.673167E2,2.3137161E2,7.724796E2,3.706431E1,5.1414303E1,4.2187285E0,8.970618E1,1.1925732E2,3.8787178E1,3.5540206E0,4.7400266E2,3.7211026E2,8.300242E1,3.708312E1,8.736609E2,5.808618E0,3.872037E0,4.851238E0,4.351119E1,1.0347098E2,2.2063144E2,6.3680607E1,7.273112E1,2.2049273E1,4.3414283E0,1.0096144E1,3.2815036E2,5.0506172E1,5.233424E2,7.001177E1,8.117725E0,5.0047274E0,4.251659E1,3.3322825E0,9.262301E1,8.436916E2,8.705373E2,2.1817027E2,7.951998E2,7.211685E1,1.896742E2,4.1697426E1,7.433895E2,2.9090061E1,5.630236E0,3.143407E1,4.836227E1,3.052034E0,5.5630905E1,3.407527E1,1.1573356E2,3.523757E0,2.4681469E1,1.4105707E1],"tree_param":{"num_deleted":"0","num_feature":"37","num_nodes":"99","size_leaf_vector":"1"}},{"base_weights":[-2.7975101E-2,-2.0930785E-1,1.9439662E0,-3.6914152E-1,1.2942072E0,1.5659096E0,2.0160787E-2,6.6066885E-1,-4.9428076E-1,1.3921813E0,1.1129557E0,1.6594188E-2,-3.4125834E-3,1.319308E0,4.3698183E-1,-2.7712315E-1,-8.489356E-1,1.4232441E-2,8.572093E-3,1.168821E0,4.1132137E-1,1.3939657E0,1.0883711E-1,1.0771631E-1,7.7898544E-1,-3.8598365E-1,1.3448439E0,-9.002068E-1,1.827047E-2,1.3146452E0,7.914162E-1,5.006548E-3,-9.168363E-4,1.415308E-2,2.7417194E-3,6.85406E-3,-7.3205763E-3,-4.4940552E-4,1.2427884E-2,9.017963E-3,1.9964965E-3,-4.0964875E-3,1.2505853E-2,1.3712432E-2,4.0944363E-3,-7.6968735E-3,-9.992371E-3,1.55065125E-2,1.029835E-2,8.415892E-3,1.761285E-3],"categories":[],"categories_nodes":[],"categories_segments":[],"categories_sizes":[],"default_left":[0,0,0,0,0,0,0,0,0,0,0,0,0,0,0,0,0,0,0,0,0,0,0,0,0,0,0,0,0,0,0,0,0,0,0,0,0,0,0,0,0,0,0,0,0,0,0,0,0,0,0],"id":7,"left_children":[1,3,5,7,9,11,-1,13,15,17,19,-1,-1,21,23,25,27,-1,-1,29,31,33,35,37,39,41,43,45,-1,47,49,-1,-1,-1,-1,-1,-1,-1,-1,-1,-1,-1,-1,-1,-1,-1,-1,-1,-1,-1,-1],"loss_changes":[2.8498657E3,1.7562048E3,2.477295E0,8.5226385E2,4.7008057E0,2.6016083E1,0E0,1.02782196E2,4.523131E2,1.1220093E0,8.219147E0,0E0,0E0,1.5436005E1,6.0713654E1,6.4875415E2,3.1469373E2,0E0,0E0,8.462433E0,1.4803329E0,2.070282E0,1.0193571E1,4.9232487E1,1.797934E1,1.3552426E2,2.886139E0,2.451001E1,0E0,3.5365295E0,1.7766113E0,0E0,0E0,0E0,0E0,0E0,0E0,0E0,0E0,0E0,0E0,0E0,0E0,0E0,0E0,0E0,0E0,0E0,0E0,0E0,0E0],"parents":[2147483647,0,0,1,1,2,2,3,3,4,4,5,5,7,7,8,8,9,9,10,10,13,13,14,14,15,15,16,16,19,19,20,20,21,21,22,22,23,23,24,24,25,25,26,26,27,27,29,29,30,30],"right_children":[2,4,6,8,10,12,-1,14,16,18,20,-1,-1,22,24,26,28,-1,-1,30,32,34,36,38,40,42,44,46,-1,48,50,-1,-1,-1,-1,-1,-1,-1,-1,-1,-1,-1,-1,-1,-1,-1,-1,-1,-1,-1,-1],"split_conditions":[1E0,1.2334269E0,-2.7905548E-1,-1.2297587E0,1.142561E0,-1.164938E0,2.0160787E-2,-1.4242207E0,1E0,3.6577528E0,1E0,1.6594188E-2,-3.4125834E-3,1E0,5.236761E-1,1E0,1E0,1.4232441E-2,8.572093E-3,1E0,1E0,5.6616926E0,-1.9427861E0,1E0,1.6538129E0,1E0,3.6577528E0,1E0,1.827047E-2,1E0,1E0,5.006548E-3,-9.168363E-4,1.415308E-2,2.7417194E-3,6.85406E-3,-7.3205763E-3,-4.4940552E-4,1.2427884E-2,9.017963E-3,1.9964965E-3,-4.0964875E-3,1.2505853E-2,1.3712432E-2,4.0944363E-3,-7.6968735E-3,-9.992371E-3,1.55065125E-2,1.029835E-2,8.415892E-3,1.761285E-3],"split_indices":[19,4,4,4,1,4,0,4,22,3,31,0,0,22,1,26,30,0,0,23,11,3,4,11,3,31,3,28,0,17,11,0,0,0,0,0,0,0,0,0,0,0,0,0,0,0,0,0,0,0,0],"split_type":[0,0,0,0,0,0,0,0,0,0,0,0,0,0,0,0,0,0,0,0,0,0,0,0,0,0,0,0,0,0,0,0,0,0,0,0,0,0,0,0,0,0,0,0,0,0,0,0,0,0,0],"sum_hessian":[7.959283E3,7.293109E3,6.661742E2,6.595719E3,6.973898E2,1.2493012E2,5.412441E2,7.1232166E2,5.8833975E3,4.309716E2,2.6641818E2,1.19715195E2,5.214924E0,1.743675E2,5.3795416E2,3.6545974E3,2.2288E3,3.9945663E2,3.1514954E1,2.4367303E2,2.2745161E1,1.6351617E2,1.08513155E1,2.774459E2,2.6050827E2,3.4283176E3,2.2627983E2,2.1901587E3,3.8641205E1,1.6678578E2,7.688725E1,1.9351574E1,3.3935876E0,1.591544E2,4.361777E0,6.9929533E0,3.8583622E0,2.4878043E2,2.8665472E1,2.1263289E2,4.7875397E1,3.3831511E3,4.5166546E1,2.1779277E2,8.487066E0,9.638243E2,1.2263345E3,7.9035706E1,8.775008E1,6.9374916E1,7.5123324E0],"tree_param":{"num_deleted":"0","num_feature":"37","num_nodes":"51","size_leaf_vector":"1"}},{"base_weights":[4.1098376E-3,8.677611E-1,-7.1176547E-1,1.5951681E-1,1.574824E0,-5.772273E-1,-8.5808516E-1,-3.4195328E-1,7.5239336E-1,1.3468428E0,2.0474698E-2,-7.5420064E-1,-4.574294E-1,3.3516735E-1,-9.326341E-1,-7.4739764E-3,-5.5796975E-1,1.3572354E0,4.2483467E-1,1.422208E0,8.154043E-1,-4.3018365E-1,-8.624743E-1,-2.9630762E-1,-5.2384484E-1,-5.3834003E-1,1.1335907E0,-1.0828855E0,-8.4408337E-1,1.6398442E-1,-4.5595807E-1,-6.043893E-1,8.506479E-1,1.3864645E0,1.7177239E-1,1.364133E0,1.5985219E-1,1.2717142E0,1.6366075E0,1.9255427E-1,1.2258632E0,-4.9243405E-1,-6.744314E-2,-8.8823414E-1,-2.7938375E-1,1.1296304E-2,-4.0511957E-1,-5.752246E-1,-1.5706652E-1,-9.893433E-1,8.6043105E-2,1.78962E-2,8.6575136E-2,-1.1075724E0,-3.637473E-1,-1.0855877E0,-8.0751014E-1,-1.6569714E-3,7.789031E-3,-5.4850564E-3,8.300422E-3,-4.821928E-3,-8.413993E-3,1.0642421E-2,1.0813738E-3,1.4382523E-2,5.3746556E-3,5.9954654E-3,-2.7908045E-3,1.4712919E-2,-1.7571971E-3,3.2572317E-4,1.4015705E-2,1.41594E-2,1.1235976E-2,1.7692354E-2,1.3554247E-2,-1.9173683E-3,8.6409915E-3,1.3573426E-2,4.047379E-3,-3.2400894E-3,-7.627698E-3,-3.033713E-3,2.3845446E-3,-8.988497E-3,3.286596E-3,2.1887424E-3,-7.2108307E-3,-4.219056E-3,3.1754815E-3,-4.407925E-3,5.8258055E-3,-5.5042855E-3,-1.2855653E-2,6.4160005E-4,-9.554519E-3,-1.0796211E-2,5.1564104E-5,6.4664744E-3,-1.4998404E-3,-2.9343986E-3,9.028926E-3,-1.1392815E-2,-8.372031E-3,-4.6612965E-3,-1.1111937E-3,-1.2013372E-2,-7.206853E-3,-8.506515E-3,-6.456198E-3],"categories":[],"categories_nodes":[],"categories_segments":[],"categories_sizes":[],"default_left":[0,0,0,0,0,0,0,0,0,0,0,0,0,0,0,0,0,0,0,0,0,0,0,0,0,0,0,0,0,0,0,0,0,0,0,0,0,0,0,0,0,0,0,0,0,0,0,0,0,0,0,0,0,0,0,0,0,0,0,0,0,0,0,0,0,0,0,0,0,0,0,0,0,0,0,0,0,0,0,0,0,0,0,0,0,0,0,0,0,0,0,0,0,0,0,0,0,0,0,0,0,0,0,0,0,0,0,0,0,0,0],"id":8,"left_children":[1,3,5,7,9,11,13,15,17,19,-1,21,23,25,27,29,31,33,35,37,39,41,43,45,47,49,51,53,55,57,59,61,63,65,67,69,71,73,75,77,79,81,83,85,87,89,91,93,95,97,99,-1,101,103,105,107,109,-1,-1,-1,-1,-1,-1,-1,-1,-1,-1,-1,-1,-1,-1,-1,-1,-1,-1,-1,-1,-1,-1,-1,-1,-1,-1,-1,-1,-1,-1,-1,-1,-1,-1,-1,-1,-1,-1,-1,-1,-1,-1,-1,-1,-1,-1,-1,-1,-1,-1,-1,-1,-1,-1],"loss_changes":[4.9224478E3,1.8057192E3,8.32063E1,5.38906E2,1.8068945E2,4.667047E1,1.8615417E2,7.100405E1,1.6157672E2,4.3538574E1,0E0,3.0195496E1,1.3922241E1,9.0713844E1,2.1412964E1,3.0431732E1,4.161949E1,8.819946E0,1.3474901E2,2.4171875E1,4.0936707E1,5.2231216E0,8.961914E0,1.384037E1,1.7756775E1,1.8289326E1,4.5419914E1,1.0522034E1,6.659607E0,5.87153E1,1.5298351E1,1.4788071E1,2.7629156E0,8.500244E0,3.2849655E0,2.1012314E1,6.7937874E1,5.9624023E0,3.824463E0,1.9262114E1,7.8582306E0,8.000786E0,3.307698E0,9.865936E0,8.735169E0,1.5618215E1,1.2029705E1,1.13437195E1,2.2512047E1,3.3805008E0,4.6158E0,0E0,1.1002405E1,1.0499878E0,5.3504753E-1,1.9940796E0,4.971924E0,0E0,0E0,0E0,0E0,0E0,0E0,0E0,0E0,0E0,0E0,0E0,0E0,0E0,0E0,0E0,0E0,0E0,0E0,0E0,0E0,0E0,0E0,0E0,0E0,0E0,0E0,0E0,0E0,0E0,0E0,0E0,0E0,0E0,0E0,0E0,0E0,0E0,0E0,0E0,0E0,0E0,0E0,0E0,0E0,0E0,0E0,0E0,0E0,0E0,0E0,0E0,0E0,0E0,0E0],"parents":[2147483647,0,0,1,1,2,2,3,3,4,4,5,5,6,6,7,7,8,8,9,9,11,11,12,12,13,13,14,14,15,15,16,16,17,17,18,18,19,19,20,20,21,21,22,22,23,23,24,24,25,25,26,26,27,27,28,28,29,29,30,30,31,31,32,32,33,33,34,34,35,35,36,36,37,37,38,38,39,39,40,40,41,41,42,42,43,43,44,44,45,45,46,46,47,47,48,48,49,49,50,50,52,52,53,53,54,54,55,55,56,56],"right_children":[2,4,6,8,10,12,14,16,18,20,-1,22,24,26,28,30,32,34,36,38,40,42,44,46,48,50,52,54,56,58,60,62,64,66,68,70,72,74,76,78,80,82,84,86,88,90,92,94,96,98,100,-1,102,104,106,108,110,-1,-1,-1,-1,-1,-1,-1,-1,-1,-1,-1,-1,-1,-1,-1,-1,-1,-1,-1,-1,-1,-1,-1,-1,-1,-1,-1,-1,-1,-1,-1,-1,-1,-1,-1,-1,-1,-1,-1,-1,-1,-1,-1,-1,-1,-1,-1,-1,-1,-1,-1,-1,-1,-1],"split_conditions":[-1.7235972E-2,-2.7905548E-1,1E0,-2.3042002E0,1E0,1.1852431E0,1.1867708E0,-2.3265045E0,-2.15418E0,1E0,2.0474698E-2,1.3012056E-2,1.1867708E0,-2.7905548E-1,1.2011372E0,1E0,1E0,1E0,-1.4242207E0,-2.8120985E0,8.877167E-1,1.2482256E0,1E0,-5.780867E-1,1E0,3.4705088E-2,4.504791E-2,1.728834E0,-3.2226926E-1,-2.3332262E0,1E0,1.6538129E0,-2.8972158E-1,1E0,-7.703301E-1,1E0,1E0,-3.5097063E0,1.6538129E0,4.7925198E-1,1E0,9.47652E-2,1E0,1E0,-1.935999E-1,1.1855487E0,1E0,-3.2226926E-1,4.7925198E-1,1.2482256E0,-9.6257347E-1,1.78962E-2,1E0,1E0,1E0,1E0,1E0,-1.6569714E-3,7.789031E-3,-5.4850564E-3,8.300422E-3,-4.821928E-3,-8.413993E-3,1.0642421E-2,1.0813738E-3,1.4382523E-2,5.3746556E-3,5.9954654E-3,-2.7908045E-3,1.4712919E-2,-1.7571971E-3,3.2572317E-4,1.4015705E-2,1.41594E-2,1.1235976E-2,1.7692354E-2,1.3554247E-2,-1.9173683E-3,8.6409915E-3,1.3573426E-2,4.047379E-3,-3.2400894E-3,-7.627698E-3,-3.033713E-3,2.3845446E-3,-8.988497E-3,3.286596E-3,2.1887424E-3,-7.2108307E-3,-4.219056E-3,3.1754815E-3,-4.407925E-3,5.8258055E-3,-5.5042855E-3,-1.2855653E-2,6.4160005E-4,-9.554519E-3,-1.0796211E-2,5.1564104E-5,6.4664744E-3,-1.4998404E-3,-2.9343986E-3,9.028926E-3,-1.1392815E-2,-8.372031E-3,-4.6612965E-3,-1.1111937E-3,-1.2013372E-2,-7.206853E-3,-8.506515E-3,-6.456198E-3],"split_indices":[36,4,22,36,19,36,36,36,36,22,0,36,36,4,36,33,19,20,4,36,4,0,8,0,13,36,4,0,4,36,19,3,0,22,0,22,11,36,3,0,23,0,33,19,0,36,8,4,0,0,0,0,7,13,11,7,6,0,0,0,0,0,0,0,0,0,0,0,0,0,0,0,0,0,0,0,0,0,0,0,0,0,0,0,0,0,0,0,0,0,0,0,0,0,0,0,0,0,0,0,0,0,0,0,0,0,0,0,0,0,0],"split_type":[0,0,0,0,0,0,0,0,0,0,0,0,0,0,0,0,0,0,0,0,0,0,0,0,0,0,0,0,0,0,0,0,0,0,0,0,0,0,0,0,0,0,0,0,0,0,0,0,0,0,0,0,0,0,0,0,0,0,0,0,0,0,0,0,0,0,0,0,0,0,0,0,0,0,0,0,0,0,0,0,0,0,0,0,0,0,0,0,0,0,0,0,0,0,0,0,0,0,0,0,0,0,0,0,0,0,0,0,0,0,0],"sum_hessian":[7.9516943E3,3.603404E3,4.3482905E3,1.8032666E3,1.8001373E3,2.2782642E3,2.0700264E3,9.780805E2,8.2518616E2,1.2273789E3,5.7275836E2,9.0894666E2,1.3693175E3,1.2068541E2,1.949341E3,3.8585028E2,5.922302E2,2.843611E2,5.40825E2,1.0675817E3,1.5979723E2,2.3391046E2,6.750362E2,4.0770212E2,9.6161536E2,5.840461E1,6.22808E1,7.019781E2,1.2473628E3,2.8141354E2,1.0443674E2,5.76107E2,1.6123243E1,2.7668295E2,7.6781673E0,1.1442796E2,4.2639706E2,6.4766785E2,4.1991388E2,6.640343E1,9.339381E1,1.9809914E2,3.581132E1,6.4395386E2,3.108236E1,1.0768188E2,3.0002023E2,8.409438E2,1.20671585E2,3.2222885E1,2.6181726E1,3.6103535E1,2.6177263E1,6.7605554E2,2.5922537E1,1.4515738E2,1.1022054E3,1.8556267E2,9.585086E1,1.0010761E2,4.329119E0,3.9016318E2,1.8594383E2,1.0828333E1,5.2949095E0,2.5749408E2,1.918887E1,3.105134E0,4.5730333E0,1.0719719E2,7.2307734E0,3.9141504E2,3.498201E1,3.0642572E2,3.412421E2,2.673259E2,1.5258801E2,4.4497368E1,2.1906057E1,7.767853E1,1.571528E1,1.2885152E2,6.924761E1,2.02597E1,1.5551619E1,6.3968854E2,4.2653127E0,1.5780699E1,1.5301661E1,4.3801933E1,6.387994E1,2.9224393E2,7.776318E0,8.211676E2,1.9776176E1,9.8080025E1,2.2591564E1,2.9158094E1,3.0647914E0,5.1924844E0,2.098924E1,2.0039032E1,6.1382303E0,5.9067487E2,8.538069E1,1.5411519E1,1.0511017E1,1.0147909E2,4.3678288E1,8.534414E2,2.4876404E2],"tree_param":{"num_deleted":"0","num_feature":"37","num_nodes":"111","size_leaf_vector":"1"}},{"base_weights":[-1.9252324E-3,8.6876976E-1,-7.1906435E-1,2.2356804E-1,1.5448679E0,-7.357592E-1,1.6045809E-2,-3.2062826E-1,8.303598E-1,1.3578507E0,1.7075477E-2,-5.6919897E-1,-9.2101425E-1,1.6751291E-2,-5.30294E-1,1.4085135E0,5.1182497E-1,1.4523045E0,8.026783E-1,-7.238038E-1,-4.2902133E-1,-3.4515363E-1,-9.473253E-1,9.29886E-2,-9.618789E-3,-4.653431E-1,-1.3065481E-2,1.4628085E0,4.8969364E-1,1.4070921E0,2.5703073E-1,1.6151004E0,1.1470866E0,1.0842074E0,1.8861225E-2,-4.840778E-1,-8.337781E-1,-3.749551E-1,-6.239226E-1,-9.222042E-1,7.139261E-2,-1.0533054E0,-7.4433166E-1,2.401861E-4,9.565647E-3,-3.5561386E-3,-6.6722343E-3,9.756029E-3,1.5705768E-2,6.9258064E-3,-5.715044E-4,1.500541E-2,4.3524923E-3,3.8874375E-3,-6.487826E-3,1.3533052E-2,1.7363302E-2,1.1667924E-2,3.6198779E-3,1.1241616E-2,-4.479912E-4,-2.124837E-3,6.3841008E-3,-2.835386E-3,-6.2157395E-3,-9.607845E-3,-6.8478393E-3,-4.0507372E-3,-1.306658E-3,-6.849326E-3,5.776056E-3,-9.986733E-3,1.073091E-4,-2.3990478E-3,9.812262E-3,-1.1425674E-2,-9.359239E-3,-7.948022E-3,-5.0934367E-3],"categories":[],"categories_nodes":[],"categories_segments":[],"categories_sizes":[],"default_left":[0,0,0,0,0,0,0,0,0,0,0,0,0,0,0,0,0,0,0,0,0,0,0,0,0,0,0,0,0,0,0,0,0,0,0,0,0,0,0,0,0,0,0,0,0,0,0,0,0,0,0,0,0,0,0,0,0,0,0,0,0,0,0,0,0,0,0,0,0,0,0,0,0,0,0,0,0,0,0],"id":9,"left_children":[1,3,5,7,9,11,-1,13,15,17,-1,19,21,23,25,27,29,31,33,35,37,39,41,43,-1,45,-1,47,49,51,53,55,57,59,61,63,65,67,69,71,73,75,77,-1,-1,-1,-1,-1,-1,-1,-1,-1,-1,-1,-1,-1,-1,-1,-1,-1,-1,-1,-1,-1,-1,-1,-1,-1,-1,-1,-1,-1,-1,-1,-1,-1,-1,-1,-1],"loss_changes":[4.9710234E3,1.5667388E3,1.752461E2,6.108139E2,4.1768066E1,1.312124E2,0E0,6.913406E1,1.5734601E2,3.824048E1,0E0,4.822278E1,2.9345337E1,2.8725822E1,2.7319153E1,1.1745789E1,1.2852386E2,2.6106445E1,2.9334473E1,2.6576355E1,1.1646301E1,2.3715824E1,3.8083496E1,2.109756E1,0E0,1.1291763E1,0E0,7.4318237E0,2.9436455E0,8.110321E0,5.5061176E1,2.5753174E0,1.9739075E0,4.6870956E0,6.467744E0,8.848602E0,1.0638733E1,6.833206E0,2.0800453E1,2.9986725E0,1.8494255E1,7.9519043E0,6.11145E0,0E0,0E0,0E0,0E0,0E0,0E0,0E0,0E0,0E0,0E0,0E0,0E0,0E0,0E0,0E0,0E0,0E0,0E0,0E0,0E0,0E0,0E0,0E0,0E0,0E0,0E0,0E0,0E0,0E0,0E0,0E0,0E0,0E0,0E0,0E0,0E0],"parents":[2147483647,0,0,1,1,2,2,3,3,4,4,5,5,7,7,8,8,9,9,11,11,12,12,13,13,14,14,15,15,16,16,17,17,18,18,19,19,20,20,21,21,22,22,23,23,25,25,27,27,28,28,29,29,30,30,31,31,32,32,33,33,34,34,35,35,36,36,37,37,38,38,39,39,40,40,41,41,42,42],"right_children":[2,4,6,8,10,12,-1,14,16,18,-1,20,22,24,26,28,30,32,34,36,38,40,42,44,-1,46,-1,48,50,52,54,56,58,60,62,64,66,68,70,72,74,76,78,-1,-1,-1,-1,-1,-1,-1,-1,-1,-1,-1,-1,-1,-1,-1,-1,-1,-1,-1,-1,-1,-1,-1,-1,-1,-1,-1,-1,-1,-1,-1,-1,-1,-1,-1,-1],"split_conditions":[-1.7235972E-2,-2.7905548E-1,1E0,-2.3042002E0,1.6538129E0,1E0,1.6045809E-2,-2.3265045E0,-2.15418E0,1E0,1.7075477E-2,1.1855487E0,1.1867708E0,1E0,1E0,1E0,-1.4242207E0,1.9680612E0,-2.401117E0,2.3094732E-2,1E0,3.4705088E-2,1E0,1E0,-9.618789E-3,1.6538129E0,-1.3065481E-2,-2.287054E0,-2.2345018E0,1E0,1E0,2.3441019E-2,1E0,1E0,1E0,1E0,1.1849376E0,1E0,1E0,1E0,1E0,1.2011372E0,1E0,2.401861E-4,9.565647E-3,-3.5561386E-3,-6.6722343E-3,9.756029E-3,1.5705768E-2,6.9258064E-3,-5.715044E-4,1.500541E-2,4.3524923E-3,3.8874375E-3,-6.487826E-3,1.3533052E-2,1.7363302E-2,1.1667924E-2,3.6198779E-3,1.1241616E-2,-4.479912E-4,-2.124837E-3,6.3841008E-3,-2.835386E-3,-6.2157395E-3,-9.607845E-3,-6.8478393E-3,-4.0507372E-3,-1.306658E-3,-6.849326E-3,5.776056E-3,-9.986733E-3,1.073091E-4,-2.3990478E-3,9.812262E-3,-1.1425674E-2,-9.359239E-3,-7.948022E-3,-5.0934367E-3],"split_indices":[36,4,30,36,3,22,0,36,36,22,0,36,36,22,22,22,4,4,36,36,33,36,26,35,0,3,0,36,36,22,20,4,16,7,33,5,36,13,16,20,35,36,35,0,0,0,0,0,0,0,0,0,0,0,0,0,0,0,0,0,0,0,0,0,0,0,0,0,0,0,0,0,0,0,0,0,0,0,0],"split_type":[0,0,0,0,0,0,0,0,0,0,0,0,0,0,0,0,0,0,0,0,0,0,0,0,0,0,0,0,0,0,0,0,0,0,0,0,0,0,0,0,0,0,0,0,0,0,0,0,0,0,0,0,0,0,0,0,0,0,0,0,0,0,0,0,0,0,0,0,0,0,0,0,0,0,0,0,0,0,0],"sum_hessian":[7.9511597E3,3.5906267E3,4.360533E3,1.8407058E3,1.7499208E3,4.3328237E3,2.7709213E1,9.716399E2,8.6906586E2,8.3583624E2,9.140846E2,2.2922817E3,2.040542E3,3.7414484E2,5.9749506E2,3.0263336E2,5.664325E2,7.0738763E2,1.284486E2,1.0801135E3,1.2121683E3,9.225962E1,1.9482823E3,3.5131204E2,2.283281E1,5.587532E2,3.874188E1,2.8294257E2,1.96908E1,1.20473785E2,4.4595874E2,4.473115E2,2.6007614E2,9.3085464E1,3.536312E1,3.4819794E2,7.319155E2,9.6041626E2,2.5175206E2,3.6143543E1,5.6116077E1,1.2662155E3,6.820669E2,3.3009912E2,2.121291E1,3.7097308E2,1.877801E2,6.0370907E1,2.2257166E2,1.34036255E1,6.2871737E0,1.074148E2,1.3058988E1,3.9184613E2,5.4112587E1,1.6085161E2,2.8645987E2,2.5132436E2,8.751785E0,8.993315E1,3.152315E0,2.8128668E1,7.234455E0,1.4788705E2,2.0031087E2,3.8036942E2,3.5154614E2,8.520362E2,1.0838005E2,2.4164034E2,1.0111716E1,3.3089706E1,3.0538368E0,4.4545536E1,1.157054E1,6.9440546E2,5.7181E2,5.516333E2,1.3043356E2],"tree_param":{"num_deleted":"0","num_feature":"37","num_nodes":"79","size_leaf_vector":"1"}},{"base_weights":[1.3246917E-2,8.5303247E-1,-6.89134E-1,2.0455885E-1,1.5266856E0,-7.115274E-1,1.6906643E-2,-3.2964128E-1,8.056637E-1,1.3110795E0,1.989894E-2,-5.443971E-1,-8.957131E-1,5.5331655E-2,-5.7372046E-1,1.3546587E0,4.9768767E-1,1.3855386E0,7.721271E-1,-6.813764E-1,-4.1917717E-1,-2.888531E-1,-9.211119E-1,-2.5897626E-2,9.715744E-3,-6.069009E-1,6.122026E-3,1.4214604E0,2.0728618E-1,1.3842617E0,2.3495032E-1,1.2410939E0,1.6648492E-2,1.0501803E0,9.762413E-2,-4.776289E-1,-7.7481556E-1,-2.3034261E-1,-4.9395645E-1,-9.8915493E-1,2.0350848E-1,-1.0720756E-2,-8.3210707E-1,3.4796156E-4,-9.967415E-3,-3.9997576E-3,-7.5641004E-3,9.709648E-3,1.5216271E-2,5.580249E-3,-1.5004753E-3,1.46588525E-2,2.4684386E-3,3.8269015E-3,-6.991599E-3,1.2493102E-2,4.568134E-3,4.462595E-3,1.1223155E-2,-5.9588044E-3,6.6318056E-3,-2.7502775E-3,-6.226133E-3,-8.787503E-3,-6.443825E-3,1.0632693E-3,-3.589927E-3,-5.199386E-3,-1.2412842E-3,-1.0752509E-2,-3.3082726E-4,-9.4043126E-4,9.357564E-3,-1.0994929E-2,-7.928441E-3],"categories":[],"categories_nodes":[],"categories_segments":[],"categories_sizes":[],"default_left":[0,0,0,0,0,0,0,0,0,0,0,0,0,0,0,0,0,0,0,0,0,0,0,0,0,0,0,0,0,0,0,0,0,0,0,0,0,0,0,0,0,0,0,0,0,0,0,0,0,0,0,0,0,0,0,0,0,0,0,0,0,0,0,0,0,0,0,0,0,0,0,0,0,0,0],"id":10,"left_children":[1,3,5,7,9,11,-1,13,15,17,-1,19,21,23,25,27,29,31,33,35,37,39,41,43,-1,45,-1,47,49,51,53,55,-1,57,59,61,63,65,67,69,71,-1,73,-1,-1,-1,-1,-1,-1,-1,-1,-1,-1,-1,-1,-1,-1,-1,-1,-1,-1,-1,-1,-1,-1,-1,-1,-1,-1,-1,-1,-1,-1,-1,-1],"loss_changes":[4.7131387E3,1.5881958E3,2.378894E2,5.986105E2,1.651084E2,1.3035059E2,0E0,9.3034615E1,1.4483594E2,4.407544E1,0E0,3.7575867E1,3.0171875E1,2.9015522E1,2.567685E1,2.2434998E1,1.3102222E2,3.306201E1,2.9647652E1,1.8664886E1,1.6387741E1,3.1851475E1,2.1858276E1,2.1472414E1,0E0,1.6770996E1,0E0,5.859314E0,3.3097637E0,1.0165497E1,6.279745E1,1.8275146E0,0E0,2.4199066E0,2.2561111E1,9.4770355E0,7.065613E0,1.5360914E1,7.897461E0,2.92107E0,1.2791858E1,0E0,8.803223E0,0E0,0E0,0E0,0E0,0E0,0E0,0E0,0E0,0E0,0E0,0E0,0E0,0E0,0E0,0E0,0E0,0E0,0E0,0E0,0E0,0E0,0E0,0E0,0E0,0E0,0E0,0E0,0E0,0E0,0E0,0E0,0E0],"parents":[2147483647,0,0,1,1,2,2,3,3,4,4,5,5,7,7,8,8,9,9,11,11,12,12,13,13,14,14,15,15,16,16,17,17,18,18,19,19,20,20,21,21,22,22,23,23,25,25,27,27,28,28,29,29,30,30,31,31,33,33,34,34,35,35,36,36,37,37,38,38,39,39,40,40,42,42],"right_children":[2,4,6,8,10,12,-1,14,16,18,-1,20,22,24,26,28,30,32,34,36,38,40,42,44,-1,46,-1,48,50,52,54,56,-1,58,60,62,64,66,68,70,72,-1,74,-1,-1,-1,-1,-1,-1,-1,-1,-1,-1,-1,-1,-1,-1,-1,-1,-1,-1,-1,-1,-1,-1,-1,-1,-1,-1,-1,-1,-1,-1,-1,-1],"split_conditions":[-1.7235972E-2,-2.7905548E-1,1E0,-2.3042002E0,1E0,1E0,1.6906643E-2,-2.3265045E0,-2.15418E0,1E0,1.989894E-2,1.1855487E0,1.1858542E0,1E0,1E0,1E0,-1.4242207E0,-2.7912054E0,-2.401117E0,2.3094732E-2,1.5332341E0,3.4705088E-2,1.2011372E0,1E0,9.715744E-3,1E0,6.122026E-3,-2.287054E0,1E0,1E0,1E0,1E0,1.6648492E-2,2.3441019E-2,1E0,1E0,1.1849376E0,-3.2226926E-1,1E0,1E0,1E0,-1.0720756E-2,-3.2226926E-1,3.4796156E-4,-9.967415E-3,-3.9997576E-3,-7.5641004E-3,9.709648E-3,1.5216271E-2,5.580249E-3,-1.5004753E-3,1.46588525E-2,2.4684386E-3,3.8269015E-3,-6.991599E-3,1.2493102E-2,4.568134E-3,4.462595E-3,1.1223155E-2,-5.9588044E-3,6.6318056E-3,-2.7502775E-3,-6.226133E-3,-8.787503E-3,-6.443825E-3,1.0632693E-3,-3.589927E-3,-5.199386E-3,-1.2412842E-3,-1.0752509E-2,-3.3082726E-4,-9.4043126E-4,9.357564E-3,-1.0994929E-2,-7.928441E-3],"split_indices":[36,4,30,36,19,22,0,36,36,22,0,36,36,35,19,22,4,36,36,36,36,36,36,22,0,17,0,36,5,22,20,8,0,4,5,5,36,4,10,20,35,0,4,0,0,0,0,0,0,0,0,0,0,0,0,0,0,0,0,0,0,0,0,0,0,0,0,0,0,0,0,0,0,0,0],"split_type":[0,0,0,0,0,0,0,0,0,0,0,0,0,0,0,0,0,0,0,0,0,0,0,0,0,0,0,0,0,0,0,0,0,0,0,0,0,0,0,0,0,0,0,0,0,0,0,0,0,0,0,0,0,0,0,0,0,0,0,0,0,0,0,0,0,0,0,0,0,0,0,0,0,0,0],"sum_hessian":[7.980425E3,3.6342085E3,4.346216E3,1.8550392E3,1.7791694E3,4.309177E3,3.703924E1,9.83366E2,8.7167316E2,1.2271508E3,5.520186E2,2.2695854E3,2.0395914E3,3.8304126E2,6.0032477E2,3.071411E2,5.6453204E2,1.0712758E3,1.5587502E2,1.0732549E3,1.1963304E3,8.443434E1,1.9551571E3,3.5630124E2,2.6740036E1,5.863687E2,1.3956086E1,2.891058E2,1.8035309E1,1.2416655E2,4.403655E2,7.24075E2,3.4720074E2,1.0839231E2,4.7482704E1,3.470861E2,7.261688E2,3.4518796E2,8.511425E2,3.278231E1,5.1652035E1,7.0464655E2,1.2505105E3,3.3986456E2,1.6436657E1,2.5369312E2,3.326756E2,6.2332996E1,2.2677281E2,7.6986027E0,1.0336706E1,1.1449727E2,9.669277E0,3.8278595E2,5.7579544E1,7.1362146E2,1.0453557E1,1.5414207E1,9.29781E1,2.1200346E1,2.628236E1,1.508467E2,1.9623938E2,3.8812848E2,3.3804037E2,9.565483E1,2.4953313E2,7.933495E2,5.7793045E1,2.9492704E1,3.2896042E0,3.9816605E1,1.1835431E1,1.4279367E2,1.1077169E3],"tree_param":{"num_deleted":"0","num_feature":"37","num_nodes":"75","size_leaf_vector":"1"}},{"base_weights":[9.883128E-3,-1.79323E-1,1.895713E0,-3.2439202E-1,1.2255976E0,1.9045223E-2,7.302136E-3,-1.0306231E-1,-8.425945E-1,1.2779101E0,9.4994444E-1,-2.917974E-1,1.3168285E0,-9.728184E-1,-6.5682846E-1,1.576757E-2,1.196731E0,1.2146206E0,6.497954E-1,6.375257E-1,-4.8368102E-1,1.0685202E-2,1.4350506E0,-9.273959E-3,-1.1061577E0,-7.0421594E-1,-4.5853198E-1,1.221037E0,3.8416064E-1,1.2994158E-2,4.1452307E-1,7.0275736E-1,2.1028176E-1,7.467136E-3,-6.315155E-3,-3.6060354E-3,-6.903352E-3,1.629101E-2,1.1958123E-2,-1.196889E-2,-7.0262686E-3,-7.24473E-3,-1.5629815E-3,-3.514525E-3,-9.5361285E-3,1.2330055E-2,4.7993055E-3,5.489194E-3,-1.5857923E-3,1.0376074E-3,5.4494566E-3,3.6236432E-3,8.605169E-3,5.484827E-3,-2.7417084E-3],"categories":[],"categories_nodes":[],"categories_segments":[],"categories_sizes":[],"default_left":[0,0,0,0,0,0,0,0,0,0,0,0,0,0,0,0,0,0,0,0,0,0,0,0,0,0,0,0,0,0,0,0,0,0,0,0,0,0,0,0,0,0,0,0,0,0,0,0,0,0,0,0,0,0,0],"id":11,"left_children":[1,3,5,7,9,-1,-1,11,13,15,17,19,21,23,25,-1,27,29,31,33,35,-1,37,-1,39,41,43,45,47,-1,49,51,53,-1,-1,-1,-1,-1,-1,-1,-1,-1,-1,-1,-1,-1,-1,-1,-1,-1,-1,-1,-1,-1,-1],"loss_changes":[2.8452424E3,1.4790325E3,4.8535156E-1,7.5342163E2,3.7040405E0,0E0,0E0,1.2376954E3,4.4359253E1,4.0372925E0,6.193367E0,7.281091E2,8.217102E0,1.7890625E0,6.1338806E0,0E0,6.691345E0,1.5082779E0,8.9745903E-1,9.927832E1,8.471393E1,0E0,6.5976562E0,0E0,5.482239E0,6.719055E0,7.5172615E0,9.512329E-1,2.2829845E0,0E0,2.503338E-1,1.7007446E0,3.1725144E0,0E0,0E0,0E0,0E0,0E0,0E0,0E0,0E0,0E0,0E0,0E0,0E0,0E0,0E0,0E0,0E0,0E0,0E0,0E0,0E0,0E0,0E0],"parents":[2147483647,0,0,1,1,2,2,3,3,4,4,7,7,8,8,9,9,10,10,11,11,12,12,13,13,14,14,16,16,17,17,18,18,19,19,20,20,22,22,24,24,25,25,26,26,27,27,28,28,30,30,31,31,32,32],"right_children":[2,4,6,8,10,-1,-1,12,14,16,18,20,22,24,26,-1,28,30,32,34,36,-1,38,-1,40,42,44,46,48,-1,50,52,54,-1,-1,-1,-1,-1,-1,-1,-1,-1,-1,-1,-1,-1,-1,-1,-1,-1,-1,-1,-1,-1,-1],"split_conditions":[1E0,1.2334269E0,1E0,8.877167E-1,1E0,1.9045223E-2,7.302136E-3,-6.2986545E-2,9.5253736E-1,1.4927096E0,5.236761E-1,-1.2297587E0,2.3441019E-2,1E0,1E0,1.576757E-2,1E0,2.9403713E0,1E0,1E0,-3.2226926E-1,1.0685202E-2,1.5308237E-1,-9.273959E-3,1E0,1E0,1E0,1E0,2.3137715E0,1.2994158E-2,1E0,1E0,1E0,7.467136E-3,-6.315155E-3,-3.6060354E-3,-6.903352E-3,1.629101E-2,1.1958123E-2,-1.196889E-2,-7.0262686E-3,-7.24473E-3,-1.5629815E-3,-3.514525E-3,-9.5361285E-3,1.2330055E-2,4.7993055E-3,5.489194E-3,-1.5857923E-3,1.0376074E-3,5.4494566E-3,3.6236432E-3,8.605169E-3,5.484827E-3,-2.7417084E-3],"split_indices":[19,4,8,4,32,0,0,4,4,4,1,4,4,34,32,0,7,4,29,20,4,0,4,0,6,12,18,20,4,0,6,17,17,0,0,0,0,0,0,0,0,0,0,0,0,0,0,0,0,0,0,0,0,0,0],"split_type":[0,0,0,0,0,0,0,0,0,0,0,0,0,0,0,0,0,0,0,0,0,0,0,0,0,0,0,0,0,0,0,0,0,0,0,0,0,0,0,0,0,0,0,0,0,0,0,0,0,0,0,0,0,0,0],"sum_hessian":[7.964286E3,7.242193E3,7.2209314E2,6.567863E3,6.7433044E2,7.1352106E2,8.572084E0,4.6064243E3,1.9614384E3,5.514604E2,1.22870056E2,4.0694795E3,5.369448E2,1.1406166E3,8.208217E2,9.809629E1,4.5336407E2,5.718047E1,6.568958E1,6.944556E2,3.375024E3,1.8940434E2,3.475405E2,8.805172E2,2.6009937E2,6.5216504E2,1.6865666E2,4.377443E2,1.5619788E1,4.8868477E1,8.311993E0,5.593222E1,9.757366E0,6.413407E2,5.3114933E1,2.1238755E3,1.2511483E3,1.7583127E2,1.7170924E2,2.0430719E2,5.5792175E1,6.2734216E2,2.4822905E1,1.4571094E2,2.2945715E1,4.2750812E2,1.0236173E1,1.1952792E1,3.6669958E0,5.1338754E0,3.178117E0,2.2953733E1,3.297849E1,5.3690042E0,4.3883615E0],"tree_param":{"num_deleted":"0","num_feature":"37","num_nodes":"55","size_leaf_vector":"1"}},{"base_weights":[3.4125855E-3,-1.7518385E-1,1.8575242E-2,-2.3597719E-1,1.3877846E0,-6.1532903E-2,-6.2787086E-1,1.4320406E-2,3.841961E-1,7.112327E-2,-7.10749E-1,-4.7074842E-1,-7.0222914E-1,5.3270465E-1,-1.0683591E-3,1.6064804E-2,1.3132089E0,-7.234622E-1,7.707951E-3,3.8360667E-3,-4.8752964E-1,-6.3448316E-1,-8.5981196E-1,2.1173096E-4,8.430351E-3,-3.5922768E-4,1.3664341E-2,1.3994277E-2,4.282706E-3,-7.4393647E-3,-2.025954E-3,-5.2611222E-3,-2.8016772E-3,-6.9013075E-3,-3.9350484E-3,-8.717625E-3,-8.547381E-4],"categories":[],"categories_nodes":[],"categories_segments":[],"categories_sizes":[],"default_left":[0,0,0,0,0,0,0,0,0,0,0,0,0,0,0,0,0,0,0,0,0,0,0,0,0,0,0,0,0,0,0,0,0,0,0,0,0],"id":12,"left_children":[1,3,-1,5,7,9,11,-1,13,15,17,19,21,23,-1,25,27,29,-1,-1,31,33,35,-1,-1,-1,-1,-1,-1,-1,-1,-1,-1,-1,-1,-1,-1],"loss_changes":[2.6356226E3,6.914586E2,0E0,4.7783124E2,9.335632E0,4.1745456E2,2.349292E1,0E0,1.6271939E0,2.7526666E2,1.827707E1,1.1071106E1,1.2751648E1,2.2741284E0,0E0,2.7130997E2,1.0020905E1,7.959839E0,0E0,0E0,4.819351E0,1.2498932E1,3.5251465E0,0E0,0E0,0E0,0E0,0E0,0E0,0E0,0E0,0E0,0E0,0E0,0E0,0E0,0E0],"parents":[2147483647,0,0,1,1,3,3,4,4,5,5,6,6,8,8,9,9,10,10,11,11,12,12,13,13,15,15,16,16,17,17,20,20,21,21,22,22],"right_children":[2,4,-1,6,8,10,12,-1,14,16,18,20,22,24,-1,26,28,30,-1,-1,32,34,36,-1,-1,-1,-1,-1,-1,-1,-1,-1,-1,-1,-1,-1,-1],"split_conditions":[1E0,2.017199E0,1.8575242E-2,1E0,1E0,1E0,-5.780867E-1,1.4320406E-2,3.5551462E0,1E0,1E0,-1.731547E0,1E0,1.6538129E0,-1.0683591E-3,1E0,1.0559821E0,1.8249557E0,7.707951E-3,3.8360667E-3,-6.7420834E-1,9.5986044E-1,1.9210774E0,2.1173096E-4,8.430351E-3,-3.5922768E-4,1.3664341E-2,1.3994277E-2,4.282706E-3,-7.4393647E-3,-2.025954E-3,-5.2611222E-3,-2.8016772E-3,-6.9013075E-3,-3.9350484E-3,-8.717625E-3,-8.547381E-4],"split_indices":[19,0,0,28,28,20,0,0,0,30,27,0,20,3,0,27,0,0,0,0,0,0,0,0,0,0,0,0,0,0,0,0,0,0,0,0,0],"split_type":[0,0,0,0,0,0,0,0,0,0,0,0,0,0,0,0,0,0,0,0,0,0,0,0,0,0,0,0,0,0,0,0,0,0,0,0,0],"sum_hessian":[7.9493306E3,7.2550166E3,6.943139E2,6.9874824E3,2.6753418E2,4.839208E3,2.1482742E3,2.5418077E2,1.335341E1,4.021849E3,8.173591E2,7.019047E2,1.4463694E3,9.942432E0,3.4109771E0,3.8559954E3,1.6585365E2,8.1294824E2,4.410807E0,1.1404282E1,6.905005E2,1.0291332E3,4.172362E2,5.783158E0,4.1592746E0,3.717727E3,1.3826839E2,1.4847011E2,1.738355E1,7.801227E2,3.2825615E1,5.756571E2,1.1484334E2,8.2846094E2,2.006722E2,4.102625E2,6.9736924E0],"tree_param":{"num_deleted":"0","num_feature":"37","num_nodes":"37","size_leaf_vector":"1"}},{"base_weights":[-1.6277915E-4,8.348916E-1,-6.9662684E-1,2.248253E-1,1.4766617E0,-7.178655E-1,1.5798165E-2,-2.543787E-1,7.679908E-1,1.2927158E0,1.8833658E-2,-5.6717163E-1,-8.137216E-1,1.2012105E-1,-5.0147957E-1,1.3045022E0,4.9937606E-1,1.2068701E0,1.4279968E0,-5.449293E-1,-8.4232867E-1,-6.1594385E-1,-8.987338E-1,3.2609138E-1,-4.0626648E-1,-5.4525E-1,8.1302196E-1,1.4298954E-2,9.815873E-1,1.3800584E0,2.3216029E-1,1.1126866E0,1.337375E0,1.5287614E-2,1.2108783E0,-5.263617E-1,-8.6205804E-1,-9.917334E-1,-1.23132356E-1,-8.2812375E-1,-3.9369592E-1,-1.0565027E0,-7.895524E-1,-2.7819385E-4,9.653887E-3,-5.041207E-3,1.1790898E-3,-4.174033E-3,-8.134935E-3,9.734914E-3,-4.123613E-4,1.0329861E-2,2.1714163E-3,1.0169366E-2,1.7290952E-2,2.65001E-4,1.0293779E-2,1.2260698E-2,8.873107E-3,1.3677944E-2,5.3045433E-3,1.253789E-2,6.0501234E-3,-5.532192E-3,-3.8014476E-3,-1.0303678E-2,7.3681935E-4,-1.0597834E-2,1.9488225E-4,-4.5628366E-3,5.6771343E-3,-8.608378E-3,-2.839302E-4,-3.3720562E-3,-7.5036413E-3,-1.0654534E-2,-5.6535244E-4,-8.335069E-3,-6.227406E-3],"categories":[],"categories_nodes":[],"categories_segments":[],"categories_sizes":[],"default_left":[0,0,0,0,0,0,0,0,0,0,0,0,0,0,0,0,0,0,0,0,0,0,0,0,0,0,0,0,0,0,0,0,0,0,0,0,0,0,0,0,0,0,0,0,0,0,0,0,0,0,0,0,0,0,0,0,0,0,0,0,0,0,0,0,0,0,0,0,0,0,0,0,0,0,0,0,0,0,0],"id":13,"left_children":[1,3,5,7,9,11,-1,13,15,17,-1,19,21,23,25,27,29,31,33,35,37,39,41,43,45,47,49,-1,51,53,55,57,59,-1,61,63,65,67,69,71,73,75,77,-1,-1,-1,-1,-1,-1,-1,-1,-1,-1,-1,-1,-1,-1,-1,-1,-1,-1,-1,-1,-1,-1,-1,-1,-1,-1,-1,-1,-1,-1,-1,-1,-1,-1,-1,-1],"loss_changes":[4.615637E3,1.4113503E3,2.1487817E2,4.8411047E2,1.1930786E2,5.9656982E1,0E0,9.190738E1,1.22286316E2,5.599121E0,0E0,8.00177E0,4.1116577E1,4.376046E1,3.6583664E1,4.601959E0,1.3692076E2,2.154663E0,5.354004E-1,6.979187E0,1.19290085E1,3.6122253E1,2.707727E1,6.541922E1,6.149027E0,1.8218521E1,3.123002E0,0E0,2.6538086E0,8.420288E0,7.4891464E1,6.916992E0,3.796875E0,0E0,5.1304626E-1,4.82489E0,1.285157E1,6.719261E0,7.234704E0,1.0468414E1,6.7972527E0,6.199463E0,5.401123E0,0E0,0E0,0E0,0E0,0E0,0E0,0E0,0E0,0E0,0E0,0E0,0E0,0E0,0E0,0E0,0E0,0E0,0E0,0E0,0E0,0E0,0E0,0E0,0E0,0E0,0E0,0E0,0E0,0E0,0E0,0E0,0E0,0E0,0E0,0E0,0E0],"parents":[2147483647,0,0,1,1,2,2,3,3,4,4,5,5,7,7,8,8,9,9,11,11,12,12,13,13,14,14,15,15,16,16,17,17,18,18,19,19,20,20,21,21,22,22,23,23,24,24,25,25,26,26,28,28,29,29,30,30,31,31,32,32,34,34,35,35,36,36,37,37,38,38,39,39,40,40,41,41,42,42],"right_children":[2,4,6,8,10,12,-1,14,16,18,-1,20,22,24,26,28,30,32,34,36,38,40,42,44,46,48,50,-1,52,54,56,58,60,-1,62,64,66,68,70,72,74,76,78,-1,-1,-1,-1,-1,-1,-1,-1,-1,-1,-1,-1,-1,-1,-1,-1,-1,-1,-1,-1,-1,-1,-1,-1,-1,-1,-1,-1,-1,-1,-1,-1,-1,-1,-1,-1],"split_conditions":[-1.7235972E-2,-2.7905548E-1,1E0,-2.3042002E0,1E0,-2.7905548E-1,1.5798165E-2,-2.3265045E0,-2.15418E0,-2.8075154E0,1.8833658E-2,1.6538129E0,1.1867708E0,1E0,1E0,1E0,-1.4242207E0,1E0,1.6538129E0,1.5362895E0,1E0,1.1852431E0,1.2011372E0,-2.3332262E0,1E0,1.6538129E0,1E0,1.4298954E-2,1E0,1E0,1E0,1.142561E0,3.6577528E0,1.5287614E-2,1E0,1E0,1E0,1E0,1E0,1E0,1E0,1E0,1E0,-2.7819385E-4,9.653887E-3,-5.041207E-3,1.1790898E-3,-4.174033E-3,-8.134935E-3,9.734914E-3,-4.123613E-4,1.0329861E-2,2.1714163E-3,1.0169366E-2,1.7290952E-2,2.65001E-4,1.0293779E-2,1.2260698E-2,8.873107E-3,1.3677944E-2,5.3045433E-3,1.253789E-2,6.0501234E-3,-5.532192E-3,-3.8014476E-3,-1.0303678E-2,7.3681935E-4,-1.0597834E-2,1.9488225E-4,-4.5628366E-3,5.6771343E-3,-8.608378E-3,-2.839302E-4,-3.3720562E-3,-7.5036413E-3,-1.0654534E-2,-5.6535244E-4,-8.335069E-3,-6.227406E-3],"split_indices":[36,4,30,36,19,4,0,36,36,36,0,3,36,33,19,32,4,6,3,36,10,36,36,36,13,3,35,0,13,19,35,1,3,0,14,18,13,19,18,12,33,14,6,0,0,0,0,0,0,0,0,0,0,0,0,0,0,0,0,0,0,0,0,0,0,0,0,0,0,0,0,0,0,0,0,0,0,0,0],"split_type":[0,0,0,0,0,0,0,0,0,0,0,0,0,0,0,0,0,0,0,0,0,0,0,0,0,0,0,0,0,0,0,0,0,0,0,0,0,0,0,0,0,0,0,0,0,0,0,0,0,0,0,0,0,0,0,0,0,0,0,0,0,0,0,0,0,0,0,0,0,0,0,0,0,0,0,0,0,0,0],"sum_hessian":[7.926303E3,3.604059E3,4.3222437E3,1.8511367E3,1.7529225E3,4.285687E3,3.655679E1,9.848764E2,8.662603E2,1.2214135E3,5.3150903E2,1.6797167E3,2.6059705E3,3.9251685E2,5.9235956E2,2.8256552E2,5.836948E2,7.776298E2,4.4378363E2,1.5679128E3,1.1180384E2,7.9583484E2,1.8101355E3,2.8350543E2,1.0901139E2,5.761098E2,1.6249739E1,1.9116254E2,9.140298E1,1.3102057E2,4.5267426E2,4.7937726E2,2.982526E2,2.8244775E2,1.6133585E2,1.4937836E3,7.412924E1,9.099255E1,2.0811285E1,4.0014304E2,3.956918E2,7.225559E2,1.0875796E3,1.8555191E2,9.795354E1,9.2039604E1,1.697178E1,3.9883835E2,1.7727145E2,1.3102338E1,3.1474009E0,8.398648E1,7.4164963E0,7.381906E1,5.7201508E1,3.639611E2,8.871317E1,3.041295E2,1.7524779E2,2.840564E2,1.4196183E1,1.4565607E2,1.5679782E1,1.2501643E3,2.4361926E2,6.2408924E1,1.1720321E1,8.50396E1,5.9529595E0,1.519555E1,5.615735E0,3.8403885E2,1.6104181E1,3.5001108E2,4.5680748E1,7.1581134E2,6.744604E0,8.4490533E2,2.4267426E2],"tree_param":{"num_deleted":"0","num_feature":"37","num_nodes":"79","size_leaf_vector":"1"}},{"base_weights":[-2.9608084E-2,7.908449E-1,-7.073136E-1,1.8639404E-1,1.4218599E0,-7.2527206E-1,1.5318363E0,-2.798429E-1,7.296829E-1,1.2145098E0,1.8581416E-2,-5.672866E-1,-9.0413064E-1,1.624124E-2,3.4176947E-3,1.8929079E-1,-4.2237088E-1,1.3129355E0,4.1789794E-1,1.2888587E0,6.9942E-1,-7.222742E-1,-4.615232E-1,-1.2599356E-1,-9.4127744E-1,-7.226908E-2,1.1037153E0,-4.7570133E-1,8.2553625E-1,1.3841233E0,7.540179E-1,1.3142068E0,1.4293626E-1,1.1718425E0,1.5139546E0,9.7948015E-1,1.0267089E-1,-5.0823295E-1,-8.5266507E-1,-4.3507344E-1,-1.2743892E-2,-9.621679E-1,3.5669068E-1,-1.0905977E0,-8.524483E-1,1.1979649E-3,-9.340482E-3,1.187884E-2,-5.2415975E-4,-3.287906E-3,-8.187137E-3,9.5391525E-3,8.291771E-4,1.4094094E-2,2.7039808E-3,8.894351E-3,-4.7964882E-4,3.529237E-3,1.4078945E-2,9.861799E-3,-1.0453177E-3,1.2706612E-2,1.0028115E-2,1.5299586E-2,1.7729504E-3,1.236088E-2,5.8976114E-3,-3.199071E-3,9.826127E-3,-2.2539382E-3,-7.122426E-3,-9.888104E-3,-6.767919E-3,-3.1576639E-3,-5.3094695E-3,-1.0489371E-2,-2.7584375E-4,-6.6061347E-4,1.3704745E-2,-1.175373E-2,-7.806296E-3,-8.613375E-3,1.8969487E-6],"categories":[],"categories_nodes":[],"categories_segments":[],"categories_sizes":[],"default_left":[0,0,0,0,0,0,0,0,0,0,0,0,0,0,0,0,0,0,0,0,0,0,0,0,0,0,0,0,0,0,0,0,0,0,0,0,0,0,0,0,0,0,0,0,0,0,0,0,0,0,0,0,0,0,0,0,0,0,0,0,0,0,0,0,0,0,0,0,0,0,0,0,0,0,0,0,0,0,0,0,0,0,0],"id":14,"left_children":[1,3,5,7,9,11,13,15,17,19,-1,21,23,-1,-1,25,27,29,31,33,35,37,39,41,43,45,47,49,51,53,55,57,59,61,63,65,67,69,71,73,-1,75,77,79,81,-1,-1,-1,-1,-1,-1,-1,-1,-1,-1,-1,-1,-1,-1,-1,-1,-1,-1,-1,-1,-1,-1,-1,-1,-1,-1,-1,-1,-1,-1,-1,-1,-1,-1,-1,-1,-1,-1],"loss_changes":[4.3865986E3,1.3598738E3,1.7927515E2,4.641985E2,1.4656934E2,1.1862573E2,1.1562195E0,6.644155E1,1.5106332E2,4.133203E1,0E0,3.58761E1,5.7303223E1,0E0,0E0,5.627562E1,5.247795E1,6.3911133E0,1.367059E2,1.8509033E1,2.655973E1,2.350653E1,2.6787354E1,4.0897415E1,2.068335E1,3.1405378E1,5.408848E0,3.5486847E1,2.7336464E0,5.210846E0,5.002884E0,9.251602E0,9.089361E1,5.411377E0,5.8726807E0,7.3028107E0,2.2899582E1,2.0008698E1,1.0154907E1,1.4479614E1,0E0,2.8355598E0,2.8400234E1,1.3654602E1,9.266052E0,0E0,0E0,0E0,0E0,0E0,0E0,0E0,0E0,0E0,0E0,0E0,0E0,0E0,0E0,0E0,0E0,0E0,0E0,0E0,0E0,0E0,0E0,0E0,0E0,0E0,0E0,0E0,0E0,0E0,0E0,0E0,0E0,0E0,0E0,0E0,0E0,0E0,0E0],"parents":[2147483647,0,0,1,1,2,2,3,3,4,4,5,5,6,6,7,7,8,8,9,9,11,11,12,12,15,15,16,16,17,17,18,18,19,19,20,20,21,21,22,22,23,23,24,24,25,25,26,26,27,27,28,28,29,29,30,30,31,31,32,32,33,33,34,34,35,35,36,36,37,37,38,38,39,39,41,41,42,42,43,43,44,44],"right_children":[2,4,6,8,10,12,14,16,18,20,-1,22,24,-1,-1,26,28,30,32,34,36,38,40,42,44,46,48,50,52,54,56,58,60,62,64,66,68,70,72,74,-1,76,78,80,82,-1,-1,-1,-1,-1,-1,-1,-1,-1,-1,-1,-1,-1,-1,-1,-1,-1,-1,-1,-1,-1,-1,-1,-1,-1,-1,-1,-1,-1,-1,-1,-1,-1,-1,-1,-1,-1,-1],"split_conditions":[-1.7235972E-2,-2.7905548E-1,1E0,-2.3042002E0,1E0,1E0,8.637388E-1,-2.3310874E0,-2.15418E0,1E0,1.8581416E-2,1.1852431E0,1.1867708E0,1.624124E-2,3.4176947E-3,-2.3332262E0,1E0,5.229813E-1,-1.4242207E0,-2.7912054E0,-2.4099777E0,2.3094732E-2,3.0663235E0,3.4705088E-2,1.2011372E0,8.863159E-1,1.5365907E0,1.6538129E0,-2.3124497E0,1E0,1.6538129E0,-9.520872E-2,-8.6645174E-1,1.142561E0,1.612985E0,-2.036879E-1,-2.036879E-1,-3.8584328E-1,1.142561E0,-2.8972158E-1,-1.2743892E-2,1.2482256E0,1E0,1E0,1E0,1.1979649E-3,-9.340482E-3,1.187884E-2,-5.2415975E-4,-3.287906E-3,-8.187137E-3,9.5391525E-3,8.291771E-4,1.4094094E-2,2.7039808E-3,8.894351E-3,-4.7964882E-4,3.529237E-3,1.4078945E-2,9.861799E-3,-1.0453177E-3,1.2706612E-2,1.0028115E-2,1.5299586E-2,1.7729504E-3,1.236088E-2,5.8976114E-3,-3.199071E-3,9.826127E-3,-2.2539382E-3,-7.122426E-3,-9.888104E-3,-6.767919E-3,-3.1576639E-3,-5.3094695E-3,-1.0489371E-2,-2.7584375E-4,-6.6061347E-4,1.3704745E-2,-1.175373E-2,-7.806296E-3,-8.613375E-3,1.8969487E-6],"split_indices":[36,4,30,36,19,22,0,36,36,22,0,36,36,0,0,36,19,2,4,36,36,36,2,36,36,2,0,3,36,12,3,1,0,1,2,2,2,0,1,0,0,0,35,6,14,0,0,0,0,0,0,0,0,0,0,0,0,0,0,0,0,0,0,0,0,0,0,0,0,0,0,0,0,0,0,0,0,0,0,0,0,0,0],"split_type":[0,0,0,0,0,0,0,0,0,0,0,0,0,0,0,0,0,0,0,0,0,0,0,0,0,0,0,0,0,0,0,0,0,0,0,0,0,0,0,0,0,0,0,0,0,0,0,0,0,0,0,0,0,0,0,0,0,0,0,0,0,0,0,0,0,0,0,0,0,0,0,0,0,0,0,0,0,0,0,0,0,0,0],"sum_hessian":[7.879175E3,3.5638315E3,4.3153433E3,1.8235454E3,1.7402861E3,4.2843667E3,3.0976574E1,9.8265857E2,8.408869E2,1.1924817E3,5.4780457E2,2.2860327E3,1.9983341E3,2.7047052E1,3.9295216E0,2.285782E2,7.540804E2,2.8731772E2,5.5356915E2,1.0354875E3,1.5699416E2,9.153794E2,1.3706533E3,9.206289E1,1.9062712E3,1.8131047E2,4.7267723E1,7.261497E2,2.7930655E1,2.4829323E2,3.9024498E1,1.2550821E2,4.2806097E2,7.017547E2,3.3373282E2,1.0465499E2,5.233917E1,3.5583282E2,5.595466E2,1.3349054E3,3.5747887E1,3.1883547E1,6.0179344E1,6.899598E2,1.2163114E3,1.517771E2,2.9533371E1,4.394012E1,3.3276024E0,5.1527954E2,2.1087016E2,2.258943E1,5.3412247E0,2.4147435E2,6.818877E0,3.2931206E1,6.0932918E0,1.3272048E1,1.1223616E2,9.3744156E1,3.343168E2,4.2225238E2,2.795023E2,3.2906238E2,4.6704216E0,5.654134E1,4.8113647E1,3.7500847E1,1.4838321E1,1.5353915E2,2.0229367E2,3.0233627E2,2.5721033E2,6.043775E2,7.3052783E2,2.8605268E1,3.2782772E0,4.57611E1,1.4418244E1,5.307969E2,1.5916292E2,1.2037227E3,1.2588824E1],"tree_param":{"num_deleted":"0","num_feature":"37","num_nodes":"83","size_leaf_vector":"1"}},{"base_weights":[-1.5017296E-2,1.8376261E-1,-5.175606E-1,1.23036474E-1,1.5467405E0,-4.766728E-1,-8.7563694E-1,5.3469885E-2,1.3879738E0,1.5837075E0,-0E0,-3.4659195E-1,-5.558223E-1,-9.8051465E-1,-4.6726266E-1,-1.0499804E-2,9.4179624E-1,1.4182851E0,1.4934032E-1,1.6722372E-2,1.130728E-2,-3.8443914E-1,-1.3051508E-1,-5.737798E-1,-3.797181E-3,-9.958469E-1,-1.5757112E-3,-2.7728838E-1,-8.147215E-3,-1.5699275E-1,2.9559997E-1,9.69126E-1,-1.7492017E-1,1.4979504E0,7.975474E-1,-2.6627188E-3,5.250922E-3,-3.3141166E-1,-5.993013E-1,-3.1683072E-2,-6.606861E-1,-6.249399E-1,-3.5155138E-1,4.1583112E-1,-5.541363E-1,-1.0118154E-2,-1.6058234E-3,2.22993E-1,-4.1345698E-1,-1.823973E-3,1.61255E-2,3.5807374E-3,-6.0879523E-3,8.656001E-3,1.2714823E-2,6.0927738E-3,-7.5422865E-3,1.5139454E-2,2.7206715E-3,3.5598685E-3,8.931099E-3,-4.176539E-3,-2.021964E-3,2.841756E-3,-7.3582786E-3,-1.1829615E-3,2.2763375E-3,-2.1611081E-4,-9.660832E-3,-6.787589E-3,-3.8417706E-3,-5.0741658E-3,9.300102E-4,5.6310412E-3,-3.960717E-4,-7.269723E-3,-9.5935434E-4,4.263687E-3,-1.0853373E-3,-1.0234934E-3,-7.7829296E-3],"categories":[],"categories_nodes":[],"categories_segments":[],"categories_sizes":[],"default_left":[0,0,0,0,0,0,0,0,0,0,0,0,0,0,0,0,0,0,0,0,0,0,0,0,0,0,0,0,0,0,0,0,0,0,0,0,0,0,0,0,0,0,0,0,0,0,0,0,0,0,0,0,0,0,0,0,0,0,0,0,0,0,0,0,0,0,0,0,0,0,0,0,0,0,0,0,0,0,0,0,0],"id":15,"left_children":[1,3,5,7,9,11,13,15,17,19,-1,21,23,25,27,29,31,33,35,-1,-1,37,39,41,43,45,-1,47,-1,49,51,53,55,57,59,-1,-1,61,63,65,67,69,71,73,75,-1,-1,77,79,-1,-1,-1,-1,-1,-1,-1,-1,-1,-1,-1,-1,-1,-1,-1,-1,-1,-1,-1,-1,-1,-1,-1,-1,-1,-1,-1,-1,-1,-1,-1,-1],"loss_changes":[7.934765E2,4.7014606E2,3.08609E1,4.796062E2,1.3866821E1,1.9944641E1,7.319626E0,2.941603E2,9.593201E0,9.5825195E-3,0E0,6.137924E0,1.2421478E1,1.402298E0,2.5224457E0,2.1693837E2,1.14678955E1,7.689392E0,2.6355739E0,0E0,0E0,6.548294E0,6.393318E0,1.2707031E1,1.14490795E1,1.4446106E0,0E0,3.424512E0,0E0,1.4853831E2,8.9565384E1,5.124237E0,7.9929686E0,2.6201172E0,1.77948E-1,0E0,0E0,5.619911E0,1.6122204E1,2.602062E0,3.6405277E0,1.1400696E1,1.6790821E1,2.0042577E0,1.3410292E0,0E0,0E0,1.0796458E0,3.6723185E0,0E0,0E0,0E0,0E0,0E0,0E0,0E0,0E0,0E0,0E0,0E0,0E0,0E0,0E0,0E0,0E0,0E0,0E0,0E0,0E0,0E0,0E0,0E0,0E0,0E0,0E0,0E0,0E0,0E0,0E0,0E0,0E0],"parents":[2147483647,0,0,1,1,2,2,3,3,4,4,5,5,6,6,7,7,8,8,9,9,11,11,12,12,13,13,14,14,15,15,16,16,17,17,18,18,21,21,22,22,23,23,24,24,25,25,27,27,29,29,30,30,31,31,32,32,33,33,34,34,37,37,38,38,39,39,40,40,41,41,42,42,43,43,44,44,47,47,48,48],"right_children":[2,4,6,8,10,12,14,16,18,20,-1,22,24,26,28,30,32,34,36,-1,-1,38,40,42,44,46,-1,48,-1,50,52,54,56,58,60,-1,-1,62,64,66,68,70,72,74,76,-1,-1,78,80,-1,-1,-1,-1,-1,-1,-1,-1,-1,-1,-1,-1,-1,-1,-1,-1,-1,-1,-1,-1,-1,-1,-1,-1,-1,-1,-1,-1,-1,-1,-1,-1],"split_conditions":[1E0,1E0,8.863159E-1,1E0,1.2496505E0,1E0,1E0,1E0,5.229813E-1,1E0,-0E0,1E0,1E0,5.6096654E0,1E0,1E0,2.3396542E0,1E0,1E0,1.6722372E-2,1.130728E-2,1E0,1E0,1E0,-2.036879E-1,1E0,-1.5757112E-3,-9.520872E-2,-8.147215E-3,1E0,1.2496505E0,1E0,-1.3329784E0,1E0,5.236761E-1,-2.6627188E-3,5.250922E-3,5.236761E-1,-7.1409357E-1,1E0,-2.036879E-1,1.142561E0,1.5964669E-1,1E0,1.5964669E-1,-1.0118154E-2,-1.6058234E-3,1.2496505E0,1E0,-1.823973E-3,1.61255E-2,3.5807374E-3,-6.0879523E-3,8.656001E-3,1.2714823E-2,6.0927738E-3,-7.5422865E-3,1.5139454E-2,2.7206715E-3,3.5598685E-3,8.931099E-3,-4.176539E-3,-2.021964E-3,2.841756E-3,-7.3582786E-3,-1.1829615E-3,2.2763375E-3,-2.1611081E-4,-9.660832E-3,-6.787589E-3,-3.8417706E-3,-5.0741658E-3,9.300102E-4,5.6310412E-3,-3.960717E-4,-7.269723E-3,-9.5935434E-4,4.263687E-3,-1.0853373E-3,-1.0234934E-3,-7.7829296E-3],"split_indices":[28,27,2,30,2,5,32,11,2,32,0,18,11,2,7,6,2,32,6,0,0,34,15,32,2,11,0,1,0,24,2,35,1,16,1,0,0,1,1,35,2,1,2,34,2,0,0,2,6,0,0,0,0,0,0,0,0,0,0,0,0,0,0,0,0,0,0,0,0,0,0,0,0,0,0,0,0,0,0,0,0],"split_type":[0,0,0,0,0,0,0,0,0,0,0,0,0,0,0,0,0,0,0,0,0,0,0,0,0,0,0,0,0,0,0,0,0,0,0,0,0,0,0,0,0,0,0,0,0,0,0,0,0,0,0,0,0,0,0,0,0,0,0,0,0,0,0,0,0,0,0,0,0,0,0,0,0,0,0,0,0,0,0,0,0],"sum_hessian":[7.9332705E3,5.6869585E3,2.2463123E3,5.4496147E3,2.3734354E2,2.0265857E3,2.1972661E2,5.170478E3,2.7913678E2,2.3169078E2,5.6527586E0,7.7685645E2,1.2497292E3,1.6923459E2,5.0492023E1,4.827754E3,3.4272403E2,2.7175323E2,7.383527E0,1.8253587E2,4.9154903E1,6.57712E2,1.1914444E2,1.2101477E3,3.958152E1,1.6509601E2,4.1385717E0,3.8474808E1,1.2017215E1,3.2668003E3,1.560954E3,3.351906E2,7.5334444E0,2.3456699E2,3.7186256E1,4.184893E0,3.198634E0,5.377542E2,1.19957756E2,1.0490601E2,1.4238428E1,9.762869E2,2.338608E2,2.3140776E1,1.6440744E1,1.6095015E2,4.145855E0,7.5338807E0,3.0940928E1,3.2249907E3,4.180952E1,1.4629292E3,9.802473E1,2.6410806E2,7.108254E1,3.0834806E0,4.449964E0,2.3037799E2,4.1889896E0,1.0838037E1,2.6348219E1,3.157646E2,2.2198964E2,1.532267E1,1.04635086E2,8.07071E1,2.4198917E1,6.345784E0,7.8926444E0,7.904547E2,1.8583218E2,1.7264493E2,6.121587E1,1.660972E1,6.5310555E0,9.792305E0,6.6484394E0,3.8015776E0,3.7323031E0,2.017075E1,1.0770177E1],"tree_param":{"num_deleted":"0","num_feature":"37","num_nodes":"81","size_leaf_vector":"1"}},{"base_weights":[-6.039315E-3,8.186576E-1,-7.0391005E-1,2.0795283E-1,1.4419416E0,-7.226347E-1,1.54888565E-2,-2.8937268E-1,7.8022444E-1,1.2903131E0,1.6205114E0,-6.336317E-1,-9.7259176E-1,-4.2594876E-2,-5.3631645E-1,1.3232136E0,4.728662E-1,1.4442501E0,1.1292273E0,1.6331155E0,1.502275E-1,-6.1771965E-1,-1.2200137E0,-9.841981E-1,7.3224515E-2,5.9977777E-2,-1.0097067E0,-6.07453E-1,-1.0148365E-1,1.3415506E0,-1.2221962E-3,1.3910234E0,1.8713231E-1,1.4735289E0,3.095087E-1,1.3257681E0,9.445523E-1,1.6983327E-2,1.2809156E0,3.9763087E-3,-1.8219177E-3,-4.9792662E-1,-6.786905E-1,-4.7083125E-1,-1.3089479E-2,-3.3899623E-1,-9.9821216E-1,4.665639E-1,-6.1918665E-3,1.759822E-3,-1.5529423E-3,-1.24010965E-2,-1.5388347E-3,-3.5925384E-3,-7.5586317E-3,-2.5775433E-3,4.4730157E-3,9.473705E-3,1.4391446E-2,1.4318943E-2,-9.2978415E-4,-2.2619332E-5,1.1279001E-2,1.48734255E-2,2.782861E-3,-4.0066633E-3,7.2707194E-3,1.3524354E-2,2.521269E-3,9.671143E-3,-2.5102915E-3,1.3205792E-2,-1.4219638E-3,-3.8590087E-3,-6.491095E-3,-7.075511E-3,-3.6644682E-3,7.125814E-4,-8.116229E-3,-8.580376E-3,2.945879E-3,-1.0011801E-2,-3.5593606E-5,7.268202E-3,-9.59733E-4],"categories":[],"categories_nodes":[],"categories_segments":[],"categories_sizes":[],"default_left":[0,0,0,0,0,0,0,0,0,0,0,0,0,0,0,0,0,0,0,0,0,0,0,0,0,0,0,0,0,0,0,0,0,0,0,0,0,0,0,0,0,0,0,0,0,0,0,0,0,0,0,0,0,0,0,0,0,0,0,0,0,0,0,0,0,0,0,0,0,0,0,0,0,0,0,0,0,0,0,0,0,0,0,0,0],"id":16,"left_children":[1,3,5,7,9,11,-1,13,15,17,19,21,23,25,27,29,31,33,35,37,39,41,43,45,47,49,51,53,55,57,-1,59,61,63,65,67,69,-1,71,-1,-1,73,75,77,-1,79,81,83,-1,-1,-1,-1,-1,-1,-1,-1,-1,-1,-1,-1,-1,-1,-1,-1,-1,-1,-1,-1,-1,-1,-1,-1,-1,-1,-1,-1,-1,-1,-1,-1,-1,-1,-1,-1,-1],"loss_changes":[4.5744585E3,1.3852E3,1.8719067E2,5.2650525E2,3.831079E1,9.196533E1,0E0,6.0289658E1,1.4032611E2,1.6595947E1,1.37282715E1,2.5748657E1,1.3874512E1,5.0037403E1,1.4997131E1,8.993835E0,1.4474146E2,1.4079712E1,1.2270325E1,7.4821777E0,1.3825967E0,2.0881714E1,2.1298752E0,8.247681E0,6.033859E0,1.157198E1,8.56699E0,1.42642975E1,7.0597544E0,4.87323E0,0E0,8.645859E0,7.670816E1,5.8251953E0,7.0163136E0,5.0138245E0,8.800049E0,0E0,9.160858E0,0E0,0E0,1.6719025E1,1.7033325E1,3.279893E0,0E0,1.1459861E1,3.1450195E0,2.3477166E0,0E0,0E0,0E0,0E0,0E0,0E0,0E0,0E0,0E0,0E0,0E0,0E0,0E0,0E0,0E0,0E0,0E0,0E0,0E0,0E0,0E0,0E0,0E0,0E0,0E0,0E0,0E0,0E0,0E0,0E0,0E0,0E0,0E0,0E0,0E0,0E0,0E0],"parents":[2147483647,0,0,1,1,2,2,3,3,4,4,5,5,7,7,8,8,9,9,10,10,11,11,12,12,13,13,14,14,15,15,16,16,17,17,18,18,19,19,20,20,21,21,22,22,23,23,24,24,25,25,26,26,27,27,28,28,29,29,31,31,32,32,33,33,34,34,35,35,36,36,38,38,41,41,42,42,43,43,45,45,46,46,47,47],"right_children":[2,4,6,8,10,12,-1,14,16,18,20,22,24,26,28,30,32,34,36,38,40,42,44,46,48,50,52,54,56,58,-1,60,62,64,66,68,70,-1,72,-1,-1,74,76,78,-1,80,82,84,-1,-1,-1,-1,-1,-1,-1,-1,-1,-1,-1,-1,-1,-1,-1,-1,-1,-1,-1,-1,-1,-1,-1,-1,-1,-1,-1,-1,-1,-1,-1,-1,-1,-1,-1,-1,-1],"split_conditions":[-1.7235972E-2,-2.7905548E-1,1E0,-2.3042002E0,-2.8075154E0,1E0,1.54888565E-2,-2.3234491E0,-2.15418E0,-3.5097063E0,1.612985E0,3.429658E0,1E0,1.2496505E0,-2.3072557E0,2.3396542E0,-1.4242207E0,8.863159E-1,-5.780867E-1,1E0,1.09868586E-1,-3.2226926E-1,1.1852431E0,-1.3470602E0,1.5964669E-1,-1.935999E-1,1.142561E0,-5.780867E-1,8.637388E-1,-2.287054E0,-1.2221962E-3,2.7861726E0,1.3443472E0,1E0,1.142561E0,1E0,1E0,1.6983327E-2,1E0,3.9763087E-3,-1.8219177E-3,-1.3564974E-3,1E0,4.1563272E0,-1.3089479E-2,1E0,7.4263387E0,5.236761E-1,-6.1918665E-3,1.759822E-3,-1.5529423E-3,-1.24010965E-2,-1.5388347E-3,-3.5925384E-3,-7.5586317E-3,-2.5775433E-3,4.4730157E-3,9.473705E-3,1.4391446E-2,1.4318943E-2,-9.2978415E-4,-2.2619332E-5,1.1279001E-2,1.48734255E-2,2.782861E-3,-4.0066633E-3,7.2707194E-3,1.3524354E-2,2.521269E-3,9.671143E-3,-2.5102915E-3,1.3205792E-2,-1.4219638E-3,-3.8590087E-3,-6.491095E-3,-7.075511E-3,-3.6644682E-3,7.125814E-4,-8.116229E-3,-8.580376E-3,2.945879E-3,-1.0011801E-2,-3.5593606E-5,7.268202E-3,-9.59733E-4],"split_indices":[36,4,30,36,36,28,0,36,36,36,2,2,14,2,36,2,4,2,0,32,4,4,36,0,2,0,1,0,0,36,0,0,0,8,1,10,12,0,10,0,0,0,10,2,0,17,2,1,0,0,0,0,0,0,0,0,0,0,0,0,0,0,0,0,0,0,0,0,0,0,0,0,0,0,0,0,0,0,0,0,0,0,0,0,0],"split_type":[0,0,0,0,0,0,0,0,0,0,0,0,0,0,0,0,0,0,0,0,0,0,0,0,0,0,0,0,0,0,0,0,0,0,0,0,0,0,0,0,0,0,0,0,0,0,0,0,0,0,0,0,0,0,0,0,0,0,0,0,0,0,0,0,0,0,0,0,0,0,0,0,0,0,0,0,0,0,0,0,0,0,0,0,0],"sum_hessian":[7.9382236E3,3.6380913E3,4.3001323E3,1.8409653E3,1.797126E3,4.268058E3,3.207442E1,9.862935E2,8.546718E2,9.9415063E2,8.0297534E2,3.160429E3,1.107629E3,4.9626498E2,4.900285E2,3.0293637E2,5.517354E2,4.8795764E2,5.06193E2,7.9559454E2,7.380796E0,3.086946E3,7.348287E1,1.0957725E3,1.1856584E1,4.5290872E2,4.335628E1,4.1940756E2,7.062095E1,2.995031E2,3.4332738E0,1.2635118E2,4.2538425E2,4.742201E2,1.373753E1,2.3022588E2,2.759671E2,6.5514246E2,1.404521E2,3.6864047E0,3.6943913E0,1.0567274E3,2.0302186E3,1.1148763E1,6.233411E1,2.5987349E1,1.0697852E3,8.610511E0,3.2460725E0,2.94935E2,1.5797371E2,3.2381733E1,1.0974549E1,1.6336647E2,2.5604108E2,5.7046383E1,1.3574568E1,7.008203E1,2.2942108E2,1.2314202E2,3.2091608E0,3.5824094E2,6.7143295E1,4.6758582E2,6.634289E0,5.152589E0,8.58494E0,2.2337009E2,6.8557982E0,2.7180173E2,4.1653976E0,1.37001E2,3.4510894E0,6.1720807E2,4.395193E2,1.8526193E3,1.7759943E2,5.8185334E0,5.3302293E0,1.3319941E1,1.2667408E1,1.0665598E3,3.2253585E0,4.900765E0,3.7097461E0],"tree_param":{"num_deleted":"0","num_feature":"37","num_nodes":"85","size_leaf_vector":"1"}},{"base_weights":[2.0613044E-3,8.088461E-1,-6.732656E-1,1.9001827E-1,1.4349275E0,-6.926984E-1,1.6227705E-2,-3.112752E-1,7.491095E-1,1.2472992E0,1.8317638E-2,-5.4078734E-1,-8.6156726E-1,-4.0230256E-2,-5.9464276E-1,8.588583E-1,-6.174777E-1,1.3122467E0,7.717501E-1,-3.9617422E-1,-7.080429E-1,-3.1506404E-1,-8.843434E-1,1.9321676E-2,-7.4226934E-1,-6.583808E-1,1.0618536E-2,1.3384248E0,6.575E-1,6.574402E-1,-9.32861E-1,1.17938705E-2,1.5358399E0,1.0657897E0,1.00742295E-1,-5.958824E-1,-2.6837158E-1,-7.479774E-1,-1.3283677E-1,-9.6321464E-1,1.4658234E-1,-9.991743E-1,-8.1617826E-1,1.7766529E-3,-2.625342E-3,-1.1989615E-2,-1.8189494E-3,-7.5523905E-3,-8.774859E-4,1.4040804E-2,3.4130826E-3,1.1917162E-2,3.968224E-3,9.2752855E-3,-1.1866955E-3,-1.0010495E-3,-1.0396199E-2,5.4326593E-3,1.5480796E-2,1.1948906E-2,3.272959E-3,4.827839E-3,-7.32083E-3,-1.726192E-3,-7.426799E-3,2.2177217E-3,-2.8412815E-3,-8.482294E-3,-6.6961134E-3,9.791116E-4,-3.2251175E-3,-1.0529501E-2,1.8788737E-4,6.76878E-3,-9.566154E-3,-1.0736041E-2,-7.141538E-3,-1.1095524E-2,-7.731915E-3],"categories":[],"categories_nodes":[],"categories_segments":[],"categories_sizes":[],"default_left":[0,0,0,0,0,0,0,0,0,0,0,0,0,0,0,0,0,0,0,0,0,0,0,0,0,0,0,0,0,0,0,0,0,0,0,0,0,0,0,0,0,0,0,0,0,0,0,0,0,0,0,0,0,0,0,0,0,0,0,0,0,0,0,0,0,0,0,0,0,0,0,0,0,0,0,0,0,0,0],"id":17,"left_children":[1,3,5,7,9,11,-1,13,15,17,-1,19,21,23,25,27,29,31,33,35,37,39,41,43,45,47,-1,49,51,53,55,-1,57,59,61,63,65,67,69,71,73,75,77,-1,-1,-1,-1,-1,-1,-1,-1,-1,-1,-1,-1,-1,-1,-1,-1,-1,-1,-1,-1,-1,-1,-1,-1,-1,-1,-1,-1,-1,-1,-1,-1,-1,-1,-1,-1],"loss_changes":[4.3089185E3,1.3947642E3,1.9769385E2,5.1071033E2,1.2186206E2,1.07255615E2,0E0,7.376772E1,1.3178043E2,3.2947876E1,0E0,5.3312195E1,2.3673584E1,2.0862335E1,5.311203E1,7.27395E1,2.9970463E1,2.2888306E1,3.1044601E1,3.0452835E1,2.3447449E1,2.7163136E1,1.1022339E1,2.0900837E1,8.879581E0,2.4844269E1,0E0,1.2738342E1,7.735895E1,3.9531665E0,4.421009E0,0E0,4.4622803E-1,8.593468E0,1.9048124E1,2.8790268E1,6.1541557E0,4.796875E0,3.3897882E0,3.4084206E0,3.5969715E1,1.0936584E1,1.1321045E1,0E0,0E0,0E0,0E0,0E0,0E0,0E0,0E0,0E0,0E0,0E0,0E0,0E0,0E0,0E0,0E0,0E0,0E0,0E0,0E0,0E0,0E0,0E0,0E0,0E0,0E0,0E0,0E0,0E0,0E0,0E0,0E0,0E0,0E0,0E0,0E0],"parents":[2147483647,0,0,1,1,2,2,3,3,4,4,5,5,7,7,8,8,9,9,11,11,12,12,13,13,14,14,15,15,16,16,17,17,18,18,19,19,20,20,21,21,22,22,23,23,24,24,25,25,27,27,28,28,29,29,30,30,32,32,33,33,34,34,35,35,36,36,37,37,38,38,39,39,40,40,41,41,42,42],"right_children":[2,4,6,8,10,12,-1,14,16,18,-1,20,22,24,26,28,30,32,34,36,38,40,42,44,46,48,-1,50,52,54,56,-1,58,60,62,64,66,68,70,72,74,76,78,-1,-1,-1,-1,-1,-1,-1,-1,-1,-1,-1,-1,-1,-1,-1,-1,-1,-1,-1,-1,-1,-1,-1,-1,-1,-1,-1,-1,-1,-1,-1,-1,-1,-1,-1,-1],"split_conditions":[-1.7235972E-2,-2.7905548E-1,1E0,-2.3042002E0,1E0,1E0,1.6227705E-2,-2.3234491E0,1E0,1E0,1.8317638E-2,-1.3564974E-3,1.1855487E0,1E0,1E0,-1.4242207E0,-2.15418E0,-2.8075154E0,-2.4099777E0,1.1852431E0,1E0,3.4705088E-2,1.2011372E0,-1.935999E-1,-5.780867E-1,-2.3072557E0,1.0618536E-2,1E0,-2.15418E0,1E0,-5.780867E-1,1.17938705E-2,-1.731547E0,1E0,4.7718576E-1,1.3012056E-2,-1.5393037E0,1.1852431E0,-3.2226926E-1,1.4404689E0,1E0,1E0,-3.2226926E-1,1.7766529E-3,-2.625342E-3,-1.1989615E-2,-1.8189494E-3,-7.5523905E-3,-8.774859E-4,1.4040804E-2,3.4130826E-3,1.1917162E-2,3.968224E-3,9.2752855E-3,-1.1866955E-3,-1.0010495E-3,-1.0396199E-2,5.4326593E-3,1.5480796E-2,1.1948906E-2,3.272959E-3,4.827839E-3,-7.32083E-3,-1.726192E-3,-7.426799E-3,2.2177217E-3,-2.8412815E-3,-8.482294E-3,-6.6961134E-3,9.791116E-4,-3.2251175E-3,-1.0529501E-2,1.8788737E-4,6.76878E-3,-9.566154E-3,-1.0736041E-2,-7.141538E-3,-1.1095524E-2,-7.731915E-3],"split_indices":[36,4,30,36,19,22,0,36,20,22,0,0,36,22,19,4,36,36,36,36,11,36,36,0,0,36,0,22,36,32,0,0,0,32,4,36,0,36,4,0,32,6,4,0,0,0,0,0,0,0,0,0,0,0,0,0,0,0,0,0,0,0,0,0,0,0,0,0,0,0,0,0,0,0,0,0,0,0,0],"split_type":[0,0,0,0,0,0,0,0,0,0,0,0,0,0,0,0,0,0,0,0,0,0,0,0,0,0,0,0,0,0,0,0,0,0,0,0,0,0,0,0,0,0,0,0,0,0,0,0,0,0,0,0,0,0,0,0,0,0,0,0,0,0,0,0,0,0,0,0,0,0,0,0,0,0,0,0,0,0,0],"sum_hessian":[7.898544E3,3.5985422E3,4.300002E3,1.8130404E3,1.7855018E3,4.26738E3,3.2621674E1,9.5709045E2,8.5594995E2,1.2263921E3,5.591098E2,2.2575789E3,2.0098014E3,4.9211795E2,4.649725E2,7.9404614E2,6.1903805E1,1.0712671E3,1.55125E2,1.2198077E3,1.0377711E3,8.3394295E1,1.9264071E3,4.5810626E2,3.4011677E1,4.5065128E2,1.43212185E1,2.2644562E2,5.676005E2,1.1194823E1,5.070898E1,6.916848E2,3.7958224E2,1.05804306E2,4.9320698E1,4.6882187E2,7.5098584E2,9.6897925E2,6.879182E1,3.2439117E1,5.0955177E1,6.9208435E2,1.2343228E3,2.945276E2,1.6357867E2,1.5590264E1,1.8421412E1,3.838603E2,6.6791E1,2.1053227E2,1.5913337E1,1.8027008E2,3.8733044E2,7.5906444E0,3.6041794E0,6.873714E0,4.383527E1,7.3979287E0,3.7218433E2,8.741851E1,1.8385796E1,3.525961E1,1.4061089E1,1.2354641E2,3.4527548E2,2.1334024E1,7.296518E2,4.035186E2,5.6546063E2,3.210316E1,3.6688652E1,2.9401367E1,3.03775E0,3.5724194E1,1.5230982E1,5.377802E2,1.5430408E2,1.4186166E2,1.092461E3],"tree_param":{"num_deleted":"0","num_feature":"37","num_nodes":"79","size_leaf_vector":"1"}},{"base_weights":[-9.458494E-3,-1.929705E-1,1.3124075E0,4.9247835E-2,-8.223837E-1,1.144686E0,1.4682112E0,-2.4735875E-1,1.4961932E0,-9.9350166E-1,-5.9687585E-1,1.4297167E0,9.8403996E-1,1.4828612E0,-1.8400723E-3,7.643242E-1,-4.94254E-1,1.1980177E0,1.6008109E0,-1.0412165E0,-8.0954087E-1,-3.9555082E-1,-6.3864076E-1,1.5120142E0,7.3473996E-1,1.1237352E0,7.203737E-1,1.5644715E0,1.1569825E0,1.3374118E0,5.19066E-1,-2.749781E-1,-5.887845E-1,1.2376855E-2,1.7083305E-1,1.6142975E0,3.5151708E-4,-1.0585369E0,-5.118991E-1,-9.03039E-1,-4.587752E-1,-4.7981966E-1,3.1131062E-1,-6.844838E-1,-4.6241564E-1,1.5622379E-2,4.1973773E-1,1.0248432E-2,-1.1690883E-3,1.1445683E0,-7.615808E-4,8.1632155E-1,1.6673358E-1,1.5832908E0,4.310176E-3,7.157492E-1,1.3111584E0,1.3586578E-2,3.0904566E-3,2.2906957E-3,9.958271E-3,-2.1384885E-3,-7.6320097E-3,-5.663053E-3,-1.1048062E-2,5.629114E-3,-3.295494E-3,1.3907178E-2,1.7233022E-2,-1.0736267E-2,-6.5916586E-3,-6.874977E-3,-2.9666233E-4,-3.013147E-3,-9.395069E-3,-6.640315E-3,1.8775652E-3,-6.7595295E-3,-3.252085E-3,-1.0816426E-3,8.358654E-3,-7.095229E-3,-3.433333E-3,-8.397592E-3,-1.9249014E-3,1.1639198E-3,5.300448E-3,1.1703677E-2,7.964185E-4,8.669559E-3,-3.0740464E-4,-1.4120523E-3,7.568467E-3,1.6084863E-2,6.473523E-3,8.233521E-3,2.2148117E-3,1.3875188E-2,4.994029E-3],"categories":[],"categories_nodes":[],"categories_segments":[],"categories_sizes":[],"default_left":[0,0,0,0,0,0,0,0,0,0,0,0,0,0,0,0,0,0,0,0,0,0,0,0,0,0,0,0,0,0,0,0,0,0,0,0,0,0,0,0,0,0,0,0,0,0,0,0,0,0,0,0,0,0,0,0,0,0,0,0,0,0,0,0,0,0,0,0,0,0,0,0,0,0,0,0,0,0,0,0,0,0,0,0,0,0,0,0,0,0,0,0,0,0,0,0,0,0,0],"id":18,"left_children":[1,3,5,7,9,11,13,15,17,19,21,23,25,27,-1,29,31,33,35,37,39,41,43,45,47,49,51,53,55,57,59,61,63,-1,65,67,-1,69,71,73,75,77,79,81,83,-1,85,-1,-1,87,-1,89,91,93,-1,95,97,-1,-1,-1,-1,-1,-1,-1,-1,-1,-1,-1,-1,-1,-1,-1,-1,-1,-1,-1,-1,-1,-1,-1,-1,-1,-1,-1,-1,-1,-1,-1,-1,-1,-1,-1,-1,-1,-1,-1,-1,-1,-1],"loss_changes":[1.9249742E3,1.0625089E3,1.684961E1,2.163315E3,7.1750244E1,1.5313477E1,1.308728E1,1.0469241E3,1.713147E1,5.3657227E0,5.857422E0,3.862976E0,8.035004E0,3.6904297E0,0E0,1.1214441E2,6.8956116E1,8.814117E0,1.2788574E1,5.0751953E0,6.0396576E0,1.0212635E1,4.0141296E0,4.537323E0,7.3320217E0,5.5910645E0,6.0950546E0,4.4539795E0,3.135849E0,3.201416E0,7.963464E1,2.9717934E1,2.4087952E1,0E0,3.839495E0,2.9606934E0,0E0,1.3807373E0,2.9950876E0,2.7505035E0,8.898749E0,3.2557373E0,4.8476715E0,3.3878326E0,1.5352215E1,0E0,1.2423992E-1,0E0,0E0,5.088043E0,0E0,4.755333E0,5.1136684E0,3.3029785E0,0E0,1.2531071E0,1.4424591E0,0E0,0E0,0E0,0E0,0E0,0E0,0E0,0E0,0E0,0E0,0E0,0E0,0E0,0E0,0E0,0E0,0E0,0E0,0E0,0E0,0E0,0E0,0E0,0E0,0E0,0E0,0E0,0E0,0E0,0E0,0E0,0E0,0E0,0E0,0E0,0E0,0E0,0E0,0E0,0E0,0E0,0E0],"parents":[2147483647,0,0,1,1,2,2,3,3,4,4,5,5,6,6,7,7,8,8,9,9,10,10,11,11,12,12,13,13,15,15,16,16,17,17,18,18,19,19,20,20,21,21,22,22,23,23,24,24,25,25,26,26,27,27,28,28,29,29,30,30,31,31,32,32,34,34,35,35,37,37,38,38,39,39,40,40,41,41,42,42,43,43,44,44,46,46,49,49,51,51,52,52,53,53,55,55,56,56],"right_children":[2,4,6,8,10,12,14,16,18,20,22,24,26,28,-1,30,32,34,36,38,40,42,44,46,48,50,52,54,56,58,60,62,64,-1,66,68,-1,70,72,74,76,78,80,82,84,-1,86,-1,-1,88,-1,90,92,94,-1,96,98,-1,-1,-1,-1,-1,-1,-1,-1,-1,-1,-1,-1,-1,-1,-1,-1,-1,-1,-1,-1,-1,-1,-1,-1,-1,-1,-1,-1,-1,-1,-1,-1,-1,-1,-1,-1,-1,-1,-1,-1,-1,-1],"split_conditions":[1.2334269E0,8.877167E-1,1.6538129E0,-6.2986545E-2,9.5253736E-1,1.9680612E0,1E0,-1.2297587E0,2.3441019E-2,1E0,-9.520872E-2,1E0,1.142561E0,1E0,-1.8400723E-3,-1.4242207E0,-4.7351748E-1,1E0,1.612985E0,1E0,1E0,1E0,1E0,1.2496505E0,1E0,1E0,1E0,8.863159E-1,1E0,1.2496505E0,1E0,8.863159E-1,2.7029889E0,1.2376855E-2,1E0,1.6538129E0,3.5151708E-4,1E0,1.5964669E-1,-7.1409357E-1,1E0,1E0,1E0,1E0,1E0,1.5622379E-2,1.622351E0,1.0248432E-2,-1.1690883E-3,1E0,-7.615808E-4,5.229813E-1,1.5964669E-1,1E0,4.310176E-3,1E0,1E0,1.3586578E-2,3.0904566E-3,2.2906957E-3,9.958271E-3,-2.1384885E-3,-7.6320097E-3,-5.663053E-3,-1.1048062E-2,5.629114E-3,-3.295494E-3,1.3907178E-2,1.7233022E-2,-1.0736267E-2,-6.5916586E-3,-6.874977E-3,-2.9666233E-4,-3.013147E-3,-9.395069E-3,-6.640315E-3,1.8775652E-3,-6.7595295E-3,-3.252085E-3,-1.0816426E-3,8.358654E-3,-7.095229E-3,-3.433333E-3,-8.397592E-3,-1.9249014E-3,1.1639198E-3,5.300448E-3,1.1703677E-2,7.964185E-4,8.669559E-3,-3.0740464E-4,-1.4120523E-3,7.568467E-3,1.6084863E-2,6.473523E-3,8.233521E-3,2.2148117E-3,1.3875188E-2,4.994029E-3],"split_indices":[4,4,3,4,4,4,8,4,4,6,1,15,1,23,0,4,4,10,2,9,7,11,34,2,25,8,33,2,17,2,33,2,2,0,17,3,0,8,2,1,34,17,34,10,17,0,4,0,0,9,0,2,2,25,0,6,15,0,0,0,0,0,0,0,0,0,0,0,0,0,0,0,0,0,0,0,0,0,0,0,0,0,0,0,0,0,0,0,0,0,0,0,0,0,0,0,0,0,0],"split_type":[0,0,0,0,0,0,0,0,0,0,0,0,0,0,0,0,0,0,0,0,0,0,0,0,0,0,0,0,0,0,0,0,0,0,0,0,0,0,0,0,0,0,0,0,0,0,0,0,0,0,0,0,0,0,0,0,0,0,0,0,0,0,0,0,0,0,0,0,0,0,0,0,0,0,0,0,0,0,0,0,0,0,0,0,0,0,0,0,0,0,0,0,0,0,0,0,0,0,0],"sum_hessian":[7.9253022E3,6.96293E3,9.6237195E2,5.031313E3,1.9316173E3,4.8358997E2,4.78782E2,4.178839E3,8.52474E2,1.0885446E3,8.4307275E2,1.6005202E2,3.2353793E2,4.75088E2,3.693994E0,8.176991E2,3.36114E3,2.3760857E2,6.148654E2,8.458087E2,2.427358E2,1.5388298E2,6.8918976E2,1.3783713E2,2.221489E1,2.0080176E2,1.2273619E2,3.647169E2,1.1037113E2,2.3837927E2,5.793198E2,1.01842346E3,2.3427163E3,2.2777785E2,9.83072E0,6.0945386E2,5.411558E0,8.1415E2,3.1658695E1,1.8541241E2,5.732337E1,1.3893939E2,1.4943599E1,5.3542664E2,1.5376312E2,1.2971239E2,8.124735E0,1.5820696E1,6.3941936E0,1.9760963E2,3.1921148E0,1.0257005E2,2.0166136E1,3.567996E2,7.917318E0,3.5901672E1,7.446945E1,2.319711E2,6.4081707E0,3.6483023E2,2.1448961E2,9.115065E2,1.06917015E2,2.25499E3,8.7726265E1,5.1727486E0,4.6579714E0,2.2232536E2,3.8712848E2,7.7634973E2,3.7800312E1,2.16325E1,1.0026196E1,1.3257033E1,1.7215538E2,4.341911E1,1.3904263E1,5.378522E1,8.515417E1,1.0498281E1,4.4453177E0,4.9375848E2,4.1668156E1,5.9705338E1,9.4057785E1,4.9309726E0,3.1937623E0,1.9244298E2,5.1666627E0,9.668495E1,5.8850985E0,1.5739448E1,4.4266887E0,3.4393716E2,1.2862413E1,2.6732689E1,9.168984E0,6.48138E1,9.655656E0],"tree_param":{"num_deleted":"0","num_feature":"37","num_nodes":"99","size_leaf_vector":"1"}},{"base_weights":[3.7333212E-4,7.933131E-1,-6.771004E-1,2.2893067E-1,1.3911709E0,-6.9885504E-1,1.5852937E-2,-2.572075E-1,7.7643436E-1,1.447014E0,9.230932E-1,-6.152429E-1,-9.3037516E-1,-2.0848809E-2,-4.953627E-1,8.8055813E-1,-6.926049E-1,1.2870835E0,1.6672243E0,5.704468E-1,1.195536E0,-6.012149E-1,-1.1326574E0,-1.0092545E0,-7.892916E-1,1.005709E-1,-8.0738235E-1,-4.3540403E-1,-1.3185872E-2,1.4054027E0,6.589545E-1,6.801939E-1,-1.0587047E0,1.3722161E-2,1.1466038E0,1.6849039E0,-9.046623E-4,8.451909E-1,1.6982032E-1,1.2561979E0,1.8947412E-1,-7.014766E-1,-5.543082E-1,-5.2167434E-1,-1.2056885E-2,-1.0697377E-2,-7.7360636E-1,-7.095831E-1,-1.0304846E0,2.179898E-3,-3.1963633E-3,3.8067126E-4,-8.925474E-3,-2.5889864E-3,-5.6529106E-3,1.4787509E-2,9.891528E-4,1.2557273E-2,3.502207E-3,-1.3198418E-3,9.724581E-3,-1.1821595E-2,-2.8305042E-3,9.624295E-3,1.30899055E-2,1.7455094E-2,1.3414299E-2,9.793519E-3,-1.0325E-3,4.861318E-3,-2.5946852E-3,1.3426689E-2,4.4417144E-3,5.1782234E-3,-2.1725928E-3,-7.3948586E-3,-2.4140305E-3,-4.3854676E-3,-7.4748867E-3,-4.488605E-4,-8.088149E-3,-2.8583594E-3,-8.217665E-3,-7.49164E-3,-3.7346762E-3,-1.1711948E-2,-3.5827088E-3],"categories":[],"categories_nodes":[],"categories_segments":[],"categories_sizes":[],"default_left":[0,0,0,0,0,0,0,0,0,0,0,0,0,0,0,0,0,0,0,0,0,0,0,0,0,0,0,0,0,0,0,0,0,0,0,0,0,0,0,0,0,0,0,0,0,0,0,0,0,0,0,0,0,0,0,0,0,0,0,0,0,0,0,0,0,0,0,0,0,0,0,0,0,0,0,0,0,0,0,0,0,0,0,0,0,0,0],"id":19,"left_children":[1,3,5,7,9,11,-1,13,15,17,19,21,23,25,27,29,31,33,35,37,39,41,43,45,47,49,51,53,-1,55,57,59,61,-1,63,65,-1,67,69,71,73,75,77,79,-1,-1,81,83,85,-1,-1,-1,-1,-1,-1,-1,-1,-1,-1,-1,-1,-1,-1,-1,-1,-1,-1,-1,-1,-1,-1,-1,-1,-1,-1,-1,-1,-1,-1,-1,-1,-1,-1,-1,-1,-1,-1],"loss_changes":[4.252586E3,1.2290715E3,2.1563745E2,5.0196912E2,3.956714E1,7.904028E1,0E0,5.6273033E1,1.3864789E2,4.4627197E1,1.602803E1,1.9251099E1,8.38501E0,4.887855E1,2.1703644E1,9.188483E1,3.449597E1,3.2653809E0,2.0811401E1,1.0041307E1,5.488205E0,1.2396484E1,2.638321E-1,5.762085E0,4.4416504E0,2.2257298E1,5.1056404E0,1.0077995E1,0E0,2.2441803E1,1.0704611E2,4.443133E0,3.146801E0,0E0,5.1178284E0,1.5533447E0,0E0,7.737423E0,6.889209E0,4.199585E0,2.185985E0,1.57777405E1,4.5381165E1,2.140841E0,0E0,0E0,2.5783768E0,3.0246124E0,6.755211E0,0E0,0E0,0E0,0E0,0E0,0E0,0E0,0E0,0E0,0E0,0E0,0E0,0E0,0E0,0E0,0E0,0E0,0E0,0E0,0E0,0E0,0E0,0E0,0E0,0E0,0E0,0E0,0E0,0E0,0E0,0E0,0E0,0E0,0E0,0E0,0E0,0E0,0E0],"parents":[2147483647,0,0,1,1,2,2,3,3,4,4,5,5,7,7,8,8,9,9,10,10,11,11,12,12,13,13,14,14,15,15,16,16,17,17,18,18,19,19,20,20,21,21,22,22,23,23,24,24,25,25,26,26,27,27,29,29,30,30,31,31,32,32,34,34,35,35,37,37,38,38,39,39,40,40,41,41,42,42,43,43,46,46,47,47,48,48],"right_children":[2,4,6,8,10,12,-1,14,16,18,20,22,24,26,28,30,32,34,36,38,40,42,44,46,48,50,52,54,-1,56,58,60,62,-1,64,66,-1,68,70,72,74,76,78,80,-1,-1,82,84,86,-1,-1,-1,-1,-1,-1,-1,-1,-1,-1,-1,-1,-1,-1,-1,-1,-1,-1,-1,-1,-1,-1,-1,-1,-1,-1,-1,-1,-1,-1,-1,-1,-1,-1,-1,-1,-1,-1],"split_conditions":[-1.7235972E-2,-1.164938E0,1E0,-2.3042002E0,1E0,1E0,1.5852937E-2,-2.3234491E0,1E0,-2.8075154E0,8.877167E-1,3.429658E0,1.2011372E0,8.863159E-1,1E0,-1.4242207E0,-2.15418E0,-3.4950407E0,1.612985E0,1.5308237E-1,8.863159E-1,1.1852431E0,1.1852431E0,1E0,5.229813E-1,1E0,-1.3329784E0,1E0,-1.3185872E-2,1E0,-2.15418E0,5.236761E-1,1E0,1.3722161E-2,-2.8139317E0,1E0,-9.046623E-4,1E0,1E0,1E0,1.4927096E0,1E0,1E0,1E0,-1.2056885E-2,-1.0697377E-2,-7.1409357E-1,1E0,1.2029704E0,2.179898E-3,-3.1963633E-3,3.8067126E-4,-8.925474E-3,-2.5889864E-3,-5.6529106E-3,1.4787509E-2,9.891528E-4,1.2557273E-2,3.502207E-3,-1.3198418E-3,9.724581E-3,-1.1821595E-2,-2.8305042E-3,9.624295E-3,1.30899055E-2,1.7455094E-2,1.3414299E-2,9.793519E-3,-1.0325E-3,4.861318E-3,-2.5946852E-3,1.3426689E-2,4.4417144E-3,5.1782234E-3,-2.1725928E-3,-7.3948586E-3,-2.4140305E-3,-4.3854676E-3,-7.4748867E-3,-4.488605E-4,-8.088149E-3,-2.8583594E-3,-8.217665E-3,-7.49164E-3,-3.7346762E-3,-1.1711948E-2,-3.5827088E-3],"split_indices":[36,4,30,36,22,28,0,36,20,36,4,2,36,2,22,4,36,36,2,4,2,36,36,6,2,33,1,17,0,22,36,1,6,0,36,32,0,32,6,11,4,22,22,17,0,0,1,13,36,0,0,0,0,0,0,0,0,0,0,0,0,0,0,0,0,0,0,0,0,0,0,0,0,0,0,0,0,0,0,0,0,0,0,0,0,0,0],"split_type":[0,0,0,0,0,0,0,0,0,0,0,0,0,0,0,0,0,0,0,0,0,0,0,0,0,0,0,0,0,0,0,0,0,0,0,0,0,0,0,0,0,0,0,0,0,0,0,0,0,0,0,0,0,0,0,0,0,0,0,0,0,0,0,0,0,0,0,0,0,0,0,0,0,0,0,0,0,0,0,0,0,0,0,0,0,0,0],"sum_hessian":[7.9062637E3,3.6423203E3,4.2639434E3,1.8771794E3,1.765141E3,4.22676E3,3.7183525E1,9.9570667E2,8.814727E2,1.5676383E3,1.975027E2,3.1187659E3,1.107994E3,5.0248843E2,4.9321823E2,8.250069E2,5.646579E1,9.2796295E2,6.3967535E2,9.283897E1,1.04663734E2,3.0469858E3,7.178006E1,6.9088434E2,4.171097E2,4.3905765E2,6.3430786E1,4.6687085E2,2.6347397E1,2.3698303E2,5.880239E2,1.0979159E1,4.548663E1,5.504634E2,3.774996E2,6.335159E2,6.159417E0,5.176555E1,4.1073418E1,9.752994E1,7.1337976E0,9.4885315E2,2.0981328E3,1.2025641E1,5.9754417E1,5.356581E2,1.5522626E2,3.2834943E2,8.8760284E1,3.450656E2,9.3992035E1,6.047165E0,5.738362E1,2.0429488E2,2.6257596E2,2.2375418E2,1.32288475E1,1.952475E2,3.927764E2,3.6219327E0,7.3572264E0,3.696923E1,8.517398E0,1.9314073E2,1.8435887E2,5.211254E2,1.1239052E2,4.5216995E1,6.548554E0,2.3280764E1,1.7792654E1,8.517962E1,1.2350318E1,3.205235E0,3.9285626E0,8.7362006E2,7.5233055E1,1.3222129E3,7.7591986E2,6.7063613E0,5.31928E0,1.7083767E1,1.3814249E2,2.8823297E2,4.011646E1,7.0315285E1,1.8445004E1],"tree_param":{"num_deleted":"0","num_feature":"37","num_nodes":"87","size_leaf_vector":"1"}},{"base_weights":[-8.454248E-3,-1.7528288E-1,1.7327932E0,-3.157731E-1,1.1269919E0,1.4244982E0,1.7945368E-2,6.304668E-1,-4.369944E-1,1.1831914E0,8.108884E-1,1.5178586E0,-1.5206531E-3,1.265229E0,3.9778227E-1,-2.3578924E-1,-7.729851E-1,1.4520181E-2,1.1124728E0,9.3225515E-1,9.531823E-2,1.5461531E-2,2.93439E-3,1.341669E0,-3.1678295E-3,5.22082E-1,-6.077913E-1,-4.2392996E-1,1.19688936E-1,-8.128242E-1,1.5540325E-2,1.1302166E0,5.9656763E-1,1.0224751E0,2.551506E-1,4.143706E-1,-3.211343E-3,1.43856555E-2,8.426029E-3,4.161715E-3,1.4129228E-2,-7.424179E-3,2.4082179E-3,-2.4512904E-3,-5.406354E-3,1.3865083E-2,-6.145872E-3,-6.805206E-3,-9.151267E-3,7.6785386E-3,1.158544E-2,7.1102916E-3,6.0912E-4,1.0655081E-2,2.7512317E-3,-1.431263E-3,5.19554E-3,1.707229E-4,6.2216786E-3],"categories":[],"categories_nodes":[],"categories_segments":[],"categories_sizes":[],"default_left":[0,0,0,0,0,0,0,0,0,0,0,0,0,0,0,0,0,0,0,0,0,0,0,0,0,0,0,0,0,0,0,0,0,0,0,0,0,0,0,0,0,0,0,0,0,0,0,0,0,0,0,0,0,0,0,0,0,0,0],"id":20,"left_children":[1,3,5,7,9,11,-1,13,15,17,19,21,-1,23,25,27,29,-1,31,33,35,-1,-1,37,-1,39,41,43,45,47,-1,49,51,53,55,57,-1,-1,-1,-1,-1,-1,-1,-1,-1,-1,-1,-1,-1,-1,-1,-1,-1,-1,-1,-1,-1,-1,-1],"loss_changes":[2.2906926E3,1.3183248E3,3.100586E-1,7.468601E2,7.6503296E0,2.1673615E1,0E0,1.0677725E2,3.887489E2,3.0181885E0,1.0128067E1,2.285797E0,0E0,2.5863678E1,7.0190315E1,2.418525E2,2.062489E2,0E0,1.046936E0,5.0117035E0,3.7557576E0,0E0,0E0,3.0142517E0,0E0,4.3384705E1,8.060335E0,4.864444E1,1.1708147E3,2.5614502E1,0E0,2.833252E-1,1.4139137E0,1.4071503E0,